#############################################################################
## Copyright (c) 1996, Carnegie Mellon University, Cambridge University,
## Ronald Rosenfeld and Philip Clarkson
## Version 3, Copyright (c) 2006, Carnegie Mellon University 
## Contributors includes Wen Xu, Ananlada Chotimongkol, 
## David Huggins-Daines, Arthur Chan and Alan Black 
#############################################################################
=============================================================================
===============  This file was produced by the CMU-Cambridge  ===============
===============     Statistical Language Modeling Toolkit     ===============
=============================================================================
This is a 3-gram language model, based on a vocabulary of 944 words,
  which begins "14", "18", "1998"...
This is an OPEN-vocabulary model (type 1)
  (OOVs were mapped to UNK, which is treated as any other vocabulary word)
Good-Turing discounting was applied.
1-gram frequency of frequency : 643 
2-gram frequency of frequency : 1781 220 60 31 8 11 9 
3-gram frequency of frequency : 2384 200 43 30 12 8 6 
1-gram discounting ratios : 1.00 
2-gram discounting ratios : 0.23 0.40 0.68 0.31 
3-gram discounting ratios : 0.16 0.32 0.93 0.50 0.80 0.87 0.38 
This file is in the ARPA-standard format introduced by Doug Paul.

p(wd3|wd1,wd2)= if(trigram exists)           p_3(wd1,wd2,wd3)
                else if(bigram w1,w2 exists) bo_wt_2(w1,w2)*p(wd3|wd2)
                else                         p(wd3|w2)

p(wd2|wd1)= if(bigram exists) p_2(wd1,wd2)
            else              bo_wt_1(wd1)*p_1(wd2)

All probs and back-off weights (bo_wt) are given in log10 form.

Data formats:

Beginning of data mark: \data\
ngram 1=nr            # number of 1-grams
ngram 2=nr            # number of 2-grams
ngram 3=nr            # number of 3-grams

\1-grams:
p_1     wd_1 bo_wt_1
\2-grams:
p_2     wd_1 wd_2 bo_wt_2
\3-grams:
p_3     wd_1 wd_2 wd_3 

end of data mark: \end\

\data\
ngram 1=945
ngram 2=2146
ngram 3=2699

\1-grams:
-3.5366 <UNK>	0.0000
-3.5366 14	-0.1132
-3.5366 18	-0.1132
-3.2343 1998	-0.1130
-3.5366 2002	-0.1132
-0.9431 </s>	-2.5406
-0.9420 <s>	-0.2984
-3.5366 ABBEDINGUNG	-0.1009
-3.5366 ABFOLGE	-0.1098
-3.5366 ABGEDECKT	-0.0608
-3.5366 ABGELEITET	-0.1099
-3.5366 ABSCHLIEßT	-0.0608
-3.5366 ABSCHLUß	-0.1009
-3.2343 ABSTAND	-0.0588
-3.5366 ABZUGEBEN	-0.0608
-3.0582 ACHT	-0.1272
-3.5366 ADRESSATEN	-0.0608
-2.8363 ADRESSE	-0.2463
-2.9332 ADRESSEN	-0.1117
-3.2343 AES	-0.2180
-3.2343 ALGORITHMUS	-0.1661
-3.5366 ALKOHOLISIERT	-0.1127
-3.5366 ALLE	-0.0608
-3.2343 ALLEN	-0.2184
-2.8363 ALS	-0.1471
-2.9332 ALSO	-0.0909
-3.2343 ALTER	-0.2184
-3.0582 AM	-0.1130
-2.2565 AN	-0.1039
-3.0582 ANALYSIERT	-0.4938
-3.5366 ANBIETER	-0.1127
-3.5366 ANDERE	-0.1132
-3.0582 ANDEREN	-0.1127
-3.5366 ANDERES	-0.1132
-3.5366 ANFRAGEN	-0.1099
-3.5366 ANGERUFEN	-0.0608
-3.5366 ANGEWENDET	-0.0608
-3.5366 ANGREIFERN	-0.1131
-3.5366 ANGRENZENDEN	-0.1132
-3.5366 ANGRIFFS	-0.1131
-3.2343 ANLIEGT	-0.0592
-3.5366 ANSCHEIN	-0.1132
-3.5366 ANSCHLIEßT	-0.0608
-3.5366 ANSPRüCHEN	-0.1131
-3.5366 ANTRAG	-0.1132
-3.5366 ANTRAGSTELLER	-0.1121
-3.5366 ANTRAGSTELLERS	-0.1132
-3.5366 ANTWORTEN	-0.1132
-3.5366 ANWENDUNG	-0.1132
-3.5366 ARBEIT	-0.1132
-3.5366 ARBEITSRECHT	-0.1057
-3.5366 ART	-0.1129
-3.5366 ATTRAKTIV	-0.0608
-2.9332 AUCH	-0.1557
-2.3312 AUF	-0.5169
-3.5366 AUFGEBAUT	-0.1099
-3.5366 AUFGESPIELT	-0.1099
-3.5366 AUFGETEILT	-0.0608
-3.2343 AUFRECHTERHALTUNG	-0.2184
-2.3892 AUS	-0.0651
-3.5366 AUSDRüCKE	-0.0608
-3.5366 AUSGEFüLLT	-0.1072
-3.5366 AUSGEGANGEN	-0.1099
-3.5366 AUSGEGLICHEN	-0.0608
-3.5366 AUSGENUTZT	-0.1127
-3.5366 AUSGESTALTET	-0.1118
-3.5366 AUSGESTRAHLT	-0.0608
-3.5366 AUSGETAUSCHT	-0.0608
-3.5366 AUSLäNDISCHES	-0.1132
-3.5366 AUSNAHMEN	-0.1127
-3.5366 AUSSCHAUT	-0.1118
-2.8363 AUSSCHLIEßLICH	-0.1902
-3.5366 AUSSER	-0.1043
-2.6902 AUSSIEHT	-0.9016
-3.5366 AUSTAUSCH	-0.1132
-3.5366 AUSWAHLFELD	-0.1057
-3.5366 AUßERHALB	-0.1106
-3.5366 AXIOME	-0.1124
-3.5366 BAUARTEN	-0.0608
-3.2343 BAUCH	-0.1053
-3.5366 BAULAND	-0.1132
-3.0582 BAUSTEIN	-0.1680
-3.5366 BAUSTEINE	-0.1131
-3.2343 BAUSTEINEN	-0.1008
-3.5366 BEACHTEN	-0.0608
-3.5366 BEBAUUNGSPLAN	-0.1108
-3.5366 BEDARF	-0.1030
-3.5366 BEDEUTET	-0.1107
-3.5366 BEEINTRäCHTIGT	-0.0608
-3.5366 BEENDET	-0.1127
-3.5366 BEFESTIGEN	-0.0608
-2.9332 BEFINDET	-0.3110
-3.5366 BEHöRDE	-0.1132
-3.0582 BEI	-0.1005
-3.0582 BEIDEN	-0.1802
-3.2343 BEIM	-0.1131
-3.5366 BEIN	-0.1125
-3.5366 BEINEN	-0.1131
-3.5366 BEISPIELSWEISE	-0.1009
-3.2343 BEKANNT	-0.0607
-3.2343 BELASTET	-0.0569
-3.0582 BENACHTEILIGT	-0.1263
-3.2343 BENöTIGT	-0.0597
-3.5366 BEOBACHTER	-0.1009
-3.5366 BERECHTIGT	-0.0608
-3.0582 BEREITS	-0.1279
-3.2343 BERüHRT	-0.1108
-3.5366 BESCHLEUNIGT	-0.0608
-3.2343 BESCHRäNKT	-0.0607
-3.5366 BESCHWERDEFüHRER	-0.1127
-3.5366 BESCHWERDEFüHRERS	-0.1121
-3.5366 BESITZT	-0.1004
-3.5366 BESTANDTEIL	-0.1009
-3.5366 BESTEHENDE	-0.1132
-3.2343 BESTEHT	-0.0607
-3.5366 BESTIMMTE	-0.1132
-3.5366 BESTRAFT	-0.1030
-3.5366 BESUCHEN	-0.0608
-3.5366 BETREFFEN	-0.1121
-3.5366 BETRIEBSKOSTEN	-0.1099
-3.2343 BEVOR	-0.0988
-3.5366 BEVöLKERUNG	-0.1131
-3.5366 BEWEGE	-0.1030
-3.5366 BEWEIS	-0.1121
-3.5366 BILDES	-0.0608
-3.5366 BILDET	-0.1132
-3.2343 BIS	-0.1121
-3.0582 BISHER	-0.1090
-2.9332 BIT	-0.2172
-3.5366 BITRATEN	-0.0608
-3.5366 BITS	-0.1099
-3.5366 BLAUEN	-0.1131
-3.5366 BLEIBT	-0.0608
-3.5366 BLOCK	-0.1131
-3.5366 BLOCKVERSCHLüSSELUNG	-0.1130
-3.5366 BLOß	-0.1084
-3.5366 BLöCKE	-0.1098
-3.5366 BOHRUNG	-0.1132
-3.5366 BREMSBELäGE	-0.1132
-3.5366 BREMSE	-0.1108
-3.5366 BREMSWIRKUNG	-0.1106
-3.5366 BRRRR	-0.0608
-3.5366 BUCHSTABE	-0.1117
-2.8363 BUCHSTABEN	-0.2983
-3.5366 BUNDESMINISTER	-0.1125
-3.5366 BUNDESREPUBLIK	-0.1129
-3.5366 BUNDESTAGSPRäSIDENT	-0.1125
-3.5366 BUNDESVERFASSUNGSGERICHT	-0.1072
-3.2343 BUNDESVERFASSUNGSGERICHTSGESETZ	-0.1104
-3.5366 BüRGER	-0.0608
-3.5366 BüRGERRECHTEN	-0.0608
-3.5366 C	-0.0608
-3.0582 COMPUTER	-0.1126
-3.5366 COMPUTERS	-0.1131
-3.2343 DA	-0.2125
-3.2343 DADURCH	-0.1071
-3.5366 DAMALS	-0.1132
-3.5366 DANACH	-0.1126
-2.4561 DANN	-0.1135
-3.5366 DARAN	-0.1121
-3.5366 DARUM	-0.1070
-1.6840 DAS	-0.3761
-2.2131 DASS	-0.2500
-3.5366 DATEN	-0.1132
-3.5366 DATENAUSTAUSCH	-0.1132
-3.5366 DATENüBERTRAGUNG	-0.1132
-3.5366 DAUERHAFT	-0.1131
-3.5366 DAZWISCHEN	-0.1131
-3.5366 DDR	-0.1126
-3.5366 DEKODIEREN	-0.0608
-3.5366 DELIKTISCHE	-0.1132
-2.1551 DEM	-0.1077
-2.0881 DEN	-0.1270
-3.5366 DENN	-0.0608
-3.5366 DENNOCH	-0.1132
-1.5485 DER	-0.1333
-3.5366 DEREN	-0.1131
-3.5366 DERER	-0.1132
-2.1929 DES	-0.1652
-3.5366 DESIGNS	-0.1131
-3.5366 DESTO	-0.1130
-3.5366 DEUTLICH	-0.1132
-3.2343 DEUTSCHE	-0.2184
-3.2343 DEUTSCHEM	-0.2184
-3.2343 DEUTSCHEN	-0.1131
-2.9332 DEUTSCHLAND	-0.1097
-3.2343 DICH	-0.1127
-1.5310 DIE	-0.0641
-3.5366 DIEJENIGE	-0.1132
-3.5366 DIENEN	-0.1103
-3.5366 DIENT	-0.1107
-3.5366 DIES	-0.1127
-2.7571 DIESE	-0.1111
-2.8363 DIESEM	-0.1514
-3.2343 DIESEN	-0.1131
-3.2343 DIESER	-0.1129
-3.2343 DIESES	-0.1130
-3.2343 DIREKT	-0.1045
-3.0582 DORT	-0.1034
-3.5366 DRAN	-0.1116
-3.5366 DRAUF	-0.0608
-2.5811 DREHE	-1.0571
-3.5366 DREHEN	-0.1030
-3.5366 DREHST	-0.0608
-2.7571 DREI	-0.0566
-3.5366 DREIER-	-0.1132
-3.5366 DREIMAL	-0.1118
-3.5366 DRIN	-0.1070
-3.2343 DRITTE	-0.1083
-3.5366 DRITTEN	-0.1132
-3.5366 DROMEDARS	-0.1084
-2.7571 DU	-0.0862
-3.5366 DUMM	-0.1132
-2.8363 DURCH	-0.1484
-3.2343 DURCHGEFüHRT	-0.0569
-3.5366 DURCHSCHNITTLICHE	-0.1132
-3.5366 DURCHSCHNITTLICHEN	-0.1132
-3.5366 DYNAMISCH	-0.1132
-3.5366 EBENFALLS	-0.1131
-2.5353 ECKE	-0.4384
-3.5366 EGAL	-0.1070
-3.5366 EH	-0.1131
-3.5366 EHRENRüHRIGEN	-0.1132
-3.5366 EIGENEN	-0.1132
-3.5366 EIGENER	-0.1118
-3.5366 EIGENSCHAFT	-0.1106
-3.5366 EIGENTLICH	-0.1131
-3.5366 EIGENTLICHEN	-0.1132
-1.9442 EIN	-0.1217
-3.5366 EINBEZIEHUNG	-0.1072
-3.5366 EINBRECHER	-0.1132
-2.3592 EINE	-0.1093
-2.6322 EINEM	-0.1111
-2.8363 EINEN	-0.1518
-2.5353 EINER	-0.1178
-2.8363 EINES	-0.3011
-3.2343 EINFACH	-0.2122
-3.5366 EINGEBAUT	-0.0608
-3.5366 EINGEGRIFFEN	-0.0608
-3.5366 EINGEPASST	-0.0608
-3.5366 EINGEREICHT	-0.0608
-3.5366 EINGESCHRäNKT	-0.0608
-3.5366 EINIGERMAßEN	-0.1132
-3.5366 EINIGUNG	-0.1130
-2.5811 EINMAL	-0.0959
-3.2343 EINREDE	-0.1131
-3.0582 EINS	-0.1276
-3.5366 EINVERSTäNDNIS	-0.1009
-3.5366 EINWANDERER	-0.1125
-3.2343 EINZIGE	-0.1093
-3.5366 EINZUDRINGEN	-0.0608
-3.5366 ELEMENTE	-0.1122
-3.2343 ELEPHANTEN	-0.1094
-3.5366 ENDEN	-0.1132
-3.5366 ENERGIEERSPARNIS	-0.0608
-3.5366 ENERGIEVERBRAUCH	-0.0608
-3.5366 ENGEREN	-0.1132
-3.2343 ENTFERNUNG	-0.1104
-3.0582 ENTSCHEIDEN	-0.1763
-3.5366 ENTSCHEIDUNGSFREIHEIT	-0.1108
-3.5366 ENTSPRECHENDE	-0.1132
-3.5366 ENTWEDER	-0.1131
-3.2343 ENTWICKELT	-0.0601
-2.6902 ER	-0.1688
-3.5366 ERBRACHT	-0.1099
-3.5366 ERFOLGREICHES	-0.1132
-3.5366 ERGEBEN	-0.0608
-3.5366 ERHALTEN	-0.0608
-3.5366 ERHEBEN	-0.0608
-3.5366 ERHöHT	-0.0608
-3.5366 ERINNERT	-0.1131
-3.5366 ERKENNTNIS	-0.0608
-3.5366 ERKENNTNISSE	-0.1121
-3.5366 ERKLäRUNGSEMPFäNGERIN	-0.0608
-3.2343 ERLANGT	-0.1661
-3.5366 ERLISCHT	-0.1043
-3.5366 ERMITTELN	-0.0608
-3.5366 ERMöGLICHT	-0.1130
-3.5366 ERREICHEN	-0.1132
-3.5366 ERSTATTEN	-0.1131
-3.5366 ERSTMAL	-0.1107
-3.5366 ERWECKT	-0.1108
-3.5366 ERWERBERIN	-0.1116
-1.6268 ES	-0.1769
-3.5366 ES_HUNDERTACHTZIG_GRAD	-0.1098
-3.5366 ETWA	-0.1132
-3.5366 EXAKT	-0.1131
-3.5366 EXPERIMENTE	-0.1132
-3.0582 FALL	-0.1753
-3.5366 FAMILIENRECHT	-0.0608
-3.5366 FAST	-0.1070
-3.5366 FELD	-0.1131
-3.0582 FERNER	-0.1089
-3.5366 FESTEN	-0.1132
-3.5366 FESTGELEGT	-0.0608
-2.8363 FIGUR	-0.0800
-3.5366 FINANZAMT	-0.1126
-3.5366 FINDET	-0.1130
-3.5366 FIRMEN	-0.1131
-3.5366 FIXIERT	-0.0608
-3.5366 FLäCHENTARIFVERTRAG	-0.1130
-3.2343 FORDERUNG	-0.2184
-3.5366 FORDERUNGSRECHTE	-0.1099
-3.5366 FORMVORSCHRIFTEN	-0.1132
-3.5366 FORT	-0.0608
-3.2343 FORTSCHRITT	-0.0607
-3.5366 FRAGESTELLUNGEN	-0.1132
-3.5366 FRAKTION	-0.0608
-3.5366 FRANKREICH	-0.1117
-3.5366 FRANZöSISCHEN	-0.1132
-3.2343 FREI	-0.0607
-3.5366 FREIES	-0.1132
-3.5366 FREIHEIT	-0.1125
-3.5366 FREIHEITSSTRAFE	-0.0608
-3.5366 FREUND	-0.1098
-3.5366 FRüCHTE	-0.1009
-3.5366 FUNKNETZ	-0.1126
-3.5366 FUNKTECHNIK	-0.1108
-3.5366 FUNKTIONALITäT	-0.1108
-2.9332 FUß	-0.1595
-2.6902 FüGE	-0.8927
-3.5366 FüNF	-0.1131
-2.5811 FüR	-0.2191
-3.0582 GAB	-0.4868
-2.5811 GANZ	-0.1450
-3.5366 GEBIET	-0.1009
-3.5366 GEBILDE	-0.1098
-3.5366 GEBRAUCH	-0.1132
-3.2343 GEBUNDEN	-0.1661
-3.5366 GEDREHT	-0.0608
-3.5366 GEEIGNET	0.0000
-3.5366 GEFäLSCHTE	-0.1132
-3.5366 GEGENSATZ	-0.1131
-3.2343 GEGENSTAND	-0.1115
-3.5366 GEGENSäTZE	-0.1099
-3.5366 GEGENWäRTIGEN	-0.1132
-2.7571 GEGENüBER	-0.3061
-3.5366 GEHALTEN	-0.1099
-3.5366 GEHEIM	-0.1132
-3.5366 GEHEIME	-0.1132
-2.9332 GEHEIMTEXTS	-0.3644
-3.0582 GEHT	-0.1764
-3.2343 GEHöRT	-0.2180
-3.5366 GEKAUFTEN	-0.1131
-3.5366 GEKOMMEN	-0.0608
-3.5366 GELD	-0.1132
-3.5366 GELERNT	-0.1131
-3.5366 GELTEND	-0.1132
-3.5366 GELTENDMACHEN	-0.0608
-3.5366 GEMACHT	-0.0608
-2.5353 GENAU	-0.1677
-3.5366 GENAUIGKEIT	-0.0608
-3.5366 GENERIERT	-0.0608
-3.5366 GENIEßEN	-0.1132
-3.2343 GEREGELT	-0.1661
-3.5366 GERINGE	-0.1132
-3.5366 GERINGERER	-0.1132
-3.5366 GESAGT	-0.1098
-3.5366 GESCHAFFEN	-0.1099
-3.2343 GESCHICHTE	-0.0467
-3.5366 GESCHWINDIGKEIT	-0.1131
-3.5366 GESCHäDIGTE	-0.1072
-3.5366 GESENKT	-0.0608
-3.5366 GESETZ	-0.1130
-3.5366 GESETZBLATT	-0.1132
-3.5366 GESETZLICHE	-0.1132
-3.5366 GESETZLICHEN	-0.1132
-3.5366 GESPIEGELTE	-0.1132
-3.5366 GESTELLT	-0.0608
-3.5366 GETAN	-0.1116
-3.5366 GETRIEBENABE	-0.1124
-3.5366 GEWINNE	-0.1118
-3.5366 GEWINNEN	-0.1057
-3.5366 GEWORDEN	-0.0608
-3.5366 GEZäHLT	-0.1110
-2.8363 GIBT	-0.2891
-2.8363 GILT	-0.1370
-3.5366 GLAUBST	-0.1126
-3.2343 GLEICH	-0.2171
-3.5366 GLEICHEN	-0.1127
-3.5366 GLEICHLANG	-0.1118
-2.9332 GLäUBIGER	-0.1084
-3.5366 GNUBBEL	-0.1004
-3.5366 GNUBBELN	-0.1098
-3.5366 GOLDKLAUSEL	-0.1072
-3.2343 GRAD	-0.2158
-3.5366 GRAFISCHE	-0.1132
-3.5366 GRAFISCHEN	-0.1132
-3.2343 GRENZT	-0.1130
-3.2343 GRUND	-0.1122
-3.2343 GRUNDRECHTE	-0.1103
-3.5366 GRUNDRECHTSINHALT	-0.1117
-3.5366 GRUNDRECHTSVERWIRKUNG	-0.1072
-3.5366 GRUNDSTüCKS	-0.1127
-3.5366 GRUNDSäTZLICH	-0.1113
-3.5366 GRößEN	-0.1057
-3.0582 GRößER	-0.0390
-3.5366 GRößERE	-0.1132
-3.5366 GRüNEN	-0.1127
-3.5366 GUTEN	-0.1132
-3.2343 HABE	-0.0605
-3.2343 HABEN	-0.0491
-3.5366 HAFTUNG	-0.1132
-3.5366 HAFTUNGSBESCHRäNKUNGEN	-0.1132
-3.5366 HALS	-0.1106
-3.0582 HALT	-0.1085
-3.0582 HANDELT	-0.1687
-3.5366 HAST	-0.1126
-2.3892 HAT	-0.1017
-3.5366 HAUPTSäCHLICH	-0.1116
-3.5366 HAUS	-0.0608
-3.5366 HERAUS	-0.0608
-3.5366 HERAUSGABE	-0.1009
-3.5366 HERAUSGEFUNDEN	-0.1099
-3.5366 HERVORRAGENDES	-0.1132
-3.5366 HEUTIGEN	-0.1127
-3.5366 HIERBEI	-0.1099
-3.5366 HIERDURCH	-0.1099
-3.5366 HIERFüR	-0.1127
-3.5366 HIERZU	-0.1132
-3.5366 HILFSWISSENSCHAFT	-0.1131
-3.5366 HIN	-0.1107
-3.5366 HINREICHEND	-0.1132
-3.2343 HINTER	-0.1093
-3.5366 HINTERRADGABEL	-0.1098
-3.5366 HOHEITSAKT	-0.1116
-3.5366 HOLZ	-0.1130
-2.7571 HORIZONTAL	-0.7925
-3.5366 HäLTST	-0.1126
-3.5366 HäTTE	-0.1132
-2.9332 HäUFIGKEIT	-0.3491
-3.5366 HöCHSTE	-0.1132
-3.5366 HöCHSTSTRAFE	-0.1072
-3.5366 HöCKERS	-0.1106
-3.5366 HöHERE	-0.1132
-3.5366 HöHEREN	-0.1132
-3.5366 HöHERER	-0.1132
-3.5366 HüLLE	-0.1108
-3.5366 HüTER	-0.1009
-3.5366 I	-0.0608
-2.4561 ICH	-0.1127
-3.5366 IHN	-0.1122
-2.3048 IM	-0.1220
-3.0582 IMMER	-0.1122
-1.8363 IN	-0.5080
-3.2343 INDIREKTEN	-0.2184
-3.5366 INGENIEURWISSENSCHAFT	-0.0608
-3.0582 INNERHALB	-0.1001
-3.5366 INS	-0.1070
-3.5366 INSBESONDERE	-0.1112
-3.5366 INTERESSEN	-0.0608
-3.5366 INTERNATIONALER	-0.1131
-3.5366 INTERNETNUTZER	-0.1131
-2.8363 IP	-0.3626
-3.5366 IRGENDEINEN	-0.1130
-3.5366 IRGENDWAS	-0.1132
-1.8541 IST	-0.2277
-3.0582 JA	-0.0589
-3.5366 JAHR	-0.1131
-3.5366 JAHRES	-0.1132
-3.2343 JE	-0.1129
-3.2343 JEDER	-0.1003
-3.5366 JEDERMANN	-0.1124
-3.5366 JEDOCH	-0.1107
-2.9332 JETZT	-0.1623
-3.5366 JEWEILIGE	-0.1131
-3.5366 JEWEILIGEN	-0.1132
-3.5366 JEWEILS	-0.1130
-3.5366 JUNI	-0.1132
-3.0582 KAMELS	-0.1276
-3.5366 KANADIERN	-0.0608
-2.6322 KANN	-0.0957
-3.5366 KANNST	-0.1126
-3.5366 KANTE	-0.1125
-3.5366 KAPITALISMUS	-0.1126
-3.5366 KASERNEN	-0.1132
-3.5366 KAUFE	-0.1118
-2.7571 KEINE	-0.1120
-3.5366 KEINEN	-0.1132
-3.5366 KENNEN	-0.1132
-3.5366 KENNTNIS	-0.1127
-3.5366 KETTENBLATT	-0.1110
-3.5366 KLARTEXT	-0.1132
-3.5366 KLEINEM	-0.1125
-3.2343 KLEINES	-0.1122
-3.5366 KOMBINATION	-0.1098
-3.5366 KOMBINIERT	-0.0608
-3.5366 KOMMERZIELLEN	-0.1132
-3.5366 KOMMT	-0.1121
-3.5366 KOMPLETT	-0.1132
-3.5366 KONKRETEN	-0.1130
-3.5366 KONKURRENTEN	-0.1130
-3.5366 KONNTE	-0.1130
-3.5366 KONSTRUKTION	-0.1106
-3.2343 KONTRAHIERUNGSZWANG	-0.1661
-3.5366 KOPF	-0.0608
-3.5366 KOSTENLOSES	-0.1131
-3.5366 KOTTENFORST	-0.1130
-3.5366 KREDITINSTITUT	-0.1132
-3.5366 KREUZ	-0.0608
-3.5366 KREUZES	-0.0608
-3.2343 KRYPTOGRAFISCHE	-0.1130
-3.5366 KURZEN	-0.1132
-2.8363 KäSTCHEN	-0.0545
-3.0582 KäUFER	-0.1797
-2.5353 KöNNEN	-0.1643
-3.5366 KöNNTE	-0.1098
-3.5366 KüNDIGUNGSRECHTE	-0.1132
-3.5366 KüRZLICH	-0.1132
-2.8363 L	-0.0917
-3.5366 LAN	-0.1132
-3.5366 LAND	-0.1072
-3.2343 LANDESEBENE	-0.2184
-3.5366 LANGE	-0.1131
-3.5366 LANGEN	-0.1127
-3.5366 LEBEN	-0.1108
-3.5366 LEBENSLANGE	-0.1132
-3.5366 LEBTEN	-0.1130
-3.5366 LEDIGLICH	-0.1116
-3.5366 LEEREN	-0.1127
-2.7571 LEGE	-0.8347
-3.5366 LIEGEN	-0.1132
-3.0582 LIEGT	-0.1251
-3.5366 LINKE	-0.1127
-2.6322 LINKEN	-0.1327
-2.0881 LINKS	-0.2955
-3.2343 LOCH	-0.0539
-3.5366 LOGISCHER	-0.1132
-3.5366 LOHNEN	-0.0608
-3.5366 LOTTO	-0.1132
-3.5366 LäNGER	-0.1004
-3.5366 LäNGEREM	-0.1132
-3.5366 LäNGERER	-0.1127
-3.2343 LäSST	-0.1090
-3.5366 LüCKE	-0.0608
-3.5366 M	-0.0608
-3.5366 MAINBOARD	-0.1072
-3.5366 MAKIERT	-0.0608
-2.6322 MAN	-0.0812
-2.9332 MATHEMATIK	-0.1539
-3.2343 MATHEMATISCHE	-0.1131
-3.2343 MEHR	-0.0607
-3.5366 MEHRERE	-0.1132
-3.5366 MHM	-0.1129
-3.2343 MICH	-0.0581
-3.5366 MIETER	-0.1116
-3.5366 MIETRECHT	-0.1132
-3.5366 MIETVERHäLTNIS	-0.1132
-3.5366 MIETVERTRAG	-0.0608
-3.5366 MILLIONEN	-0.1129
-3.5366 MINDESTLOHN	-0.1132
-3.2343 MIR	-0.0552
-2.3048 MIT	-0.1221
-3.2343 MITBEWERBERN	-0.2056
-3.5366 MITGLIEDER	-0.1009
-2.4939 MITTE	-0.1144
-3.5366 MITTELLINIE	-0.0608
-3.5366 MITTLEREN	-0.1125
-3.5366 MITTLERWEILE	-0.1072
-3.2343 MODERNE	-0.2184
-3.5366 MONARCHIE	-0.0608
-3.2343 MONOPOLE	-0.1661
-3.5366 MUNITIONSLAGER	-0.0608
-2.5353 MUSS	-0.0464
-3.5366 MöCHTE	-0.0608
-3.5366 MöGLICHERWEISE	-0.1131
-3.5366 MüNDLICH	-0.1132
-3.2343 MüSSEN	-0.0594
-2.1929 NACH	-0.3215
-3.2343 NACHEINANDER	-0.2182
-3.5366 NACHKRIEGSZEIT	-0.1132
-3.5366 NACHLASSEN	-0.0608
-3.5366 NACHLäSST	-0.0608
-3.5366 NACHRICHT	-0.1072
-3.2343 NACHRICHTEN	-0.1056
-3.5366 NACHWACHSENDEN	-0.1132
-3.5366 NACHWEIS	-0.1009
-3.5366 NACHWIRKUNGSZEIT	-0.1132
-3.5366 NATURWISSENSCHAFT	-0.1112
-3.5366 NATURWISSENSCHAFTLERN	-0.1127
-3.5366 NATURWISSENSCHAFTLICHE	-0.1132
-3.5366 NEE	-0.1043
-3.5366 NEHM	-0.1043
-2.3312 NEHME	-1.2547
-3.5366 NEHMEN	-0.1125
-3.0582 NEIN	-0.1251
-3.5366 NETZWERKEN	-0.1131
-3.5366 NETZWERKKARTE	-0.1132
-3.5366 NETZWERKS	-0.1132
-3.2343 NEUE	-0.1131
-2.9332 NEUN	-0.1612
-3.2343 NEUNZIG	-0.2184
-2.6902 NEUNZIG_GRAD	-0.6507
-2.2131 NICHT	-0.0678
-2.5811 NIMM	-0.6996
-2.9332 NOCH	-0.1566
-3.2343 NORM	-0.0597
-3.5366 NORMADRESSAT	-0.1108
-3.5366 NORWEGEN	-0.1072
-3.2343 NOTEBOOKS	-0.1122
-3.5366 NOTWENDIG	-0.0608
-2.7571 NULL	-0.1262
-2.8363 NUR	-0.0790
-2.4939 OBEN	-0.1359
-2.8363 OBERE	-0.1456
-3.2343 OBEREN	-0.1098
-3.5366 OBERFLäCHE	-0.0608
-3.2343 OBERHALB	-0.1070
-3.2343 OBERSEITE	-0.0584
-3.5366 OBERSTEN	-0.1132
-3.5366 OBJEKT	-0.1113
-3.5366 OBWOHL	-0.1132
-2.6902 ODER	-0.1009
-3.5366 OHNE	-0.1132
-3.5366 OPTIONAL	-0.0608
-3.5366 ORGANSTREIT	-0.1072
-3.2343 ORGANSTREITVERFAHREN	-0.2173
-3.5366 PACK	-0.1030
-3.2343 PACKEN	-0.0598
-3.5366 PARABOLANTENNE	-0.1108
-3.5366 PARABOLANTENNEN	-0.1121
-3.5366 PARLAMENTARISCHE	-0.1132
-3.5366 PARTEIEN	-0.1132
-3.2343 PASST	-0.0594
-3.5366 PEREMPTORISCHE	-0.1131
-3.2343 PERMANENT	-0.0591
-3.2343 PERSON	-0.0607
-3.5366 PERSöNLICHE	-0.1132
-3.0582 PFLICHTEN	-0.1261
-3.5366 PHYSIK	-0.1057
-3.5366 PHYSIKALISCHE	-0.1129
-3.5366 POLITISCHE	-0.1132
-3.5366 POLIZEI	-0.1132
-3.5366 PORT	-0.1124
-3.5366 POSITION	-0.1132
-3.5366 PREISWERTE	-0.1057
-3.5366 PRIORITäT	-0.0608
-3.5366 PRIVATEN	-0.1132
-3.5366 PRIVATPERSONEN	-0.1132
-3.5366 PRO	-0.1132
-3.2343 PROGRAMM	-0.1661
-3.5366 PROGRAMMFEHLER	-0.1072
-3.5366 PROZESSFäHIGKEIT	-0.1072
-3.5366 QUADER	-0.1084
-2.6902 QUADRAT	-0.1283
-3.5366 QUADRATE	-0.1132
-3.5366 QUADRATES	-0.0608
-3.5366 RAN	-0.1110
-3.0582 RAND	-0.0549
-3.5366 RAUS	-0.1130
-3.5366 RECHNEN	-0.1112
-2.4561 RECHTE	-0.1860
-3.2343 RECHTECKS	-0.2136
-3.0582 RECHTEN	-0.1072
-2.3312 RECHTS	-0.2253
-3.5366 RECHTSEITIG	-0.0608
-3.5366 RECHTSGESCHäFTLICHE	-0.1057
-3.5366 RECHTSGESCHäFTSäHNLICHE	-0.1132
-3.5366 RECHTSGUT	-0.1132
-3.5366 RECHTSMITTEL	-0.1117
-3.5366 RECHTSNORM	-0.1117
-3.5366 REDUZIERT	-0.0608
-3.5366 REICHT	-0.1057
-3.2343 REIHE	-0.1130
-3.0582 REIN	-0.1209
-3.5366 REINSCHIEBEN	-0.1070
-3.5366 RELATIV	-0.1070
-3.5366 RELATIVITäTSGRUNDSATZ	-0.1127
-3.5366 RESSOURCEN	-0.1127
-3.5366 RESULTIEREN	-0.1116
-3.5366 RHEINISCHE	-0.1132
-3.5366 RICHTUNG	-0.0608
-3.5366 RIEGEL	-0.1057
-3.5366 ROHSTOFF	-0.0608
-2.8363 ROUTER	-0.1103
-3.5366 RUNDFUNKPROGRAMME	-0.1132
-3.2343 RüSSEL	-0.1127
-3.2343 S	-0.1661
-3.2343 SACHE	-0.0574
-3.5366 SACHENRECHT	-0.0608
-3.5366 SCHADEN	-0.1130
-3.5366 SCHALTROHR	-0.1116
-3.5366 SCHENKEL	-0.1132
-3.5366 SCHIEBE	-0.1030
-3.5366 SCHIEßT	-0.1118
-3.5366 SCHLüSSELSTROM	-0.1108
-3.5366 SCHMERZ	-0.1108
-3.5366 SCHNAUZE	-0.1057
-3.5366 SCHNELLE	-0.1130
-3.5366 SCHNITTSTELLEN	-0.1118
-3.5366 SCHON	-0.1084
-3.5366 SCHRIFTLICH	-0.1125
-3.2343 SCHULDVERHäLTNIS	-0.1085
-3.5366 SCHULDVERHäLTNISSE	-0.0608
-3.2343 SCHULDVERHäLTNISSES	-0.2184
-3.5366 SCHUTZ	-0.0608
-3.0582 SECHS	-0.1785
-3.5366 SEHEN	-0.0608
-2.6902 SEHR	-0.1399
-3.5366 SEI	-0.1132
-3.5366 SEIN	-0.0608
-3.5366 SEINEM	-0.1127
-3.2343 SEINEN	-0.2184
-2.7571 SEITE	-0.2052
-3.5366 SENDELEISTUNG	-0.0608
-3.5366 SENDEN	-0.0608
-3.5366 SENDERS	-0.1108
-3.5366 SETZ	-0.1030
-2.8363 SETZE	-0.0854
-2.4561 SICH	-0.0499
-3.2343 SICHERHEIT	-0.1036
-3.5366 SICHERHEITSLüCKEN	-0.1118
-2.6902 SIE	-0.1199
-2.9332 SIEBEN	-0.1077
-3.5366 SIGNAL	-0.1132
-3.5366 SIGNIEREN	-0.1057
-3.5366 SIGNIERUNG	-0.1098
-2.4561 SIND	-0.4148
-3.5366 SINN	-0.0608
-3.5366 SINNE	-0.0608
-2.3312 SO	-0.4825
-3.0582 SOFTWARE	-0.1102
-3.5366 SOLDATEN	-0.1131
-2.7571 SOLL	-0.2377
-3.5366 SOMIT	-0.1115
-2.9332 SONDERN	-0.1022
-3.5366 SOZUSAGEN	-0.0608
-3.2343 SPALTE	-0.1097
-3.0582 SPIEGEL	-0.4868
-2.6322 SPIEGELE	-0.9439
-3.2343 SPIEGELN	-0.0999
-3.5366 SPIEGLE	-0.1030
-3.2343 SPRICHT	-0.2122
-3.5366 SPüRBAR	-0.1057
-3.5366 STAATSGEWALT	-0.1116
-3.5366 STANDARD	-0.1117
-3.2343 STANDORTEN	-0.2122
-3.2343 STARK	-0.1130
-3.2343 STARKER	-0.2184
-3.5366 STATISCHE	-0.1127
-3.5366 STATT	-0.0608
-3.2343 STATTFINDEN	-0.1661
-3.5366 STATTFINDET	-0.0608
-3.5366 STEHEN	-0.1098
-3.2343 STELLE	-0.1021
-3.5366 STEUERHINTERZIEHUNG	-0.0608
-3.5366 STILLSCHWEIGENDEN	-0.1132
-3.5366 STRAFGESETZBUCH	-0.1127
-3.5366 STRAFRAHMEN	-0.0608
-3.2343 STRAFRECHT	-0.1661
-3.2343 STRAFRICHTER	-0.2182
-3.5366 STRAFTAT	-0.1110
-3.5366 STRECKEN	-0.1132
-3.5366 STRENG	-0.1132
-3.5366 STROMVERSCHLüSSELUNG	-0.1108
-3.5366 STüCK	-0.1132
-3.5366 STüTZT	-0.1098
-3.5366 SUCHE	-0.1118
-3.2343 SUCHEN	-0.2181
-3.5366 SUKZESSIVE	-0.1132
-3.5366 SUPERREICHEN	-0.0608
-3.5366 SYSTEM	-0.1117
-3.5366 SYSTEMS	-0.1132
-2.9332 T	-0.3110
-3.5366 TANGIERT	-0.0608
-3.5366 TATSACHE	-0.1124
-3.2343 TECHNIK	-0.2125
-3.2343 TECHNISCHE	-0.1129
-2.0582 TEIL	-0.1561
-3.2343 TEILE	-0.1661
-3.5366 TEILEN	-0.1118
-3.5366 TEILNEHMER	-0.1132
-3.5366 TEILNEHMERS	-0.1098
-3.5366 TEURER	-0.1132
-3.2343 TEXT	-0.2161
-3.5366 THOUSAND	-0.1132
-3.5366 TOLERANZ	-0.1132
-3.5366 TRANSPORTRäDER	-0.1107
-3.5366 TWO	-0.1132
-3.5366 TYPENZWANG	-0.1127
-3.5366 TäTER	-0.1084
-3.2343 U	-0.0607
-2.4561 UM	-0.5484
-3.2343 UMFANG	-0.2062
-3.5366 UMFELD	-0.1106
-3.5366 UMGEBAUT	-0.0608
-3.2343 UMGEDREHTES	-0.0605
-3.5366 UMGEKIPPTES	-0.1129
-3.5366 UMRAHMT	-0.1099
-3.5366 UMSCHRIEBEN	-0.0608
-3.5366 UM_NEUNZIG_GRAD	-0.1106
-3.5366 UNBEKANNT	-0.0608
-1.7571 UND	-0.1608
-3.5366 UNMITTELBAR	-0.1131
-3.5366 UNMITTELBARE	-0.1132
-2.3592 UNTEN	-0.1436
-3.5366 UNTERDRüCKT	-0.0608
-3.5366 UNTERE	-0.1121
-3.2343 UNTEREN	-0.1108
-3.5366 UNTERHALB	-0.1110
-3.5366 UNTERKANTE	-0.1106
-3.5366 UNTERSCHEIDET	-0.1116
-3.5366 UNTERSCHIEDLICH	-0.1132
-3.2343 UNTERSCHIEDLICHE	-0.1131
-3.5366 UNTERSTE	-0.1096
-3.5366 UNTERTEIL	-0.1113
-3.2343 UNVERSCHLüSSELTE	-0.2184
-3.5366 URSPRUNG	-0.1106
-3.5366 VERANTWORTLICHKEIT	-0.1130
-3.5366 VERDACHTSANZEIGE	-0.1132
-3.5366 VEREINBARUNG	-0.0608
-3.5366 VERFAHREN	-0.1132
-3.5366 VERFASSUNG	-0.0608
-3.2343 VERFASSUNGSBESCHWERDE	-0.1071
-3.5366 VERFASSUNGSORGANE	-0.1132
-3.0582 VERFüGBAR	-0.4447
-3.5366 VERFüGUNG	-0.0608
-3.5366 VERGEBEN	-0.0608
-3.5366 VERGEGENWäRTIGEN	-0.0608
-3.5366 VERIFIZIEREN	-0.1121
-3.0582 VERKäUFER	-0.1673
-3.5366 VERKüNDET	-0.0608
-3.5366 VERLANGT	-0.1127
-3.5366 VERLETZT	-0.0608
-3.5366 VERLETZUNG	-0.1132
-3.2343 VERLIEREN	-0.1661
-3.5366 VERLIERST	-0.0608
-3.5366 VERMITTLUNGSSTELLE	-0.1072
-3.5366 VERMöGENSVERTEILUNG	-0.1126
-3.5366 VERNEINEN	-0.1125
-3.5366 VERSCHIEDENE	-0.1132
-3.5366 VERSCHLüSSELN	-0.0608
-3.0582 VERSCHLüSSELT	-0.4447
-3.2343 VERSCHLüSSELUNG	-0.1071
-3.5366 VERSCHOBEN	-0.0608
-3.5366 VERSCHULDEN	-0.1132
-3.5366 VERSCHULDENSFäHIGEN	-0.1131
-3.5366 VERSTEHEN	-0.1121
-3.5366 VERSUCHTE	-0.1004
-2.5811 VERTIKAL	-0.9888
-3.5366 VERTRAG	-0.1072
-3.2343 VERTRAGSPARTNER	-0.2158
-3.5366 VERTRAGSTYPEN	-0.1121
-3.5366 VERTRAGSVERHäLTNIS	-0.0608
-3.5366 VERWALTUNGSAKT	-0.1113
-3.2343 VERWENDET	-0.0569
-3.5366 VERWENDUNG	-0.1009
-3.5366 VERWIRKUNG	-0.1098
-3.5366 VERWIRKUNGSVERFAHREN	-0.1131
-3.5366 VERäNDERT	-0.0608
-3.5366 VERöFFENTLICHEN	-0.0608
-3.5366 VERöFFENTLICHT	-0.0608
-3.5366 VERöLTE	-0.1132
-3.5366 VIEL	-0.1127
-3.5366 VIELEN	-0.1132
-3.5366 VIELES	-0.1132
-3.5366 VIELSEITIGEN	-0.1132
-3.0582 VIER	-0.1118
-3.5366 VIERECK	-0.0608
-3.2343 VOLLSTäNDIG	-0.1069
-2.8363 VOM	-0.1121
-2.0881 VON	-0.1857
-3.2343 VOR	-0.1112
-3.5366 VORDERBEIN	-0.1106
-3.5366 VORGESEHENE	-0.1131
-3.5366 VORTRAG	-0.1106
-3.5366 VöLKERRECHT	-0.1108
-3.5366 W-	-0.0608
-3.2343 WANN	-0.1071
-2.7571 WAR	-0.1061
-3.5366 WAREN	-0.1132
-3.5366 WARUM	-0.1125
-3.0582 WAS	-0.1048
-3.5366 WEG	-0.1084
-3.5366 WEIL	-0.1131
-3.5366 WEITEREN	-0.1132
-3.5366 WEITERGEHEN	-0.0608
-3.2343 WELCHE	-0.1131
-3.5366 WELCHES	-0.0608
-2.6902 WENN	-0.2219
-3.5366 WER	-0.1126
-3.5366 WERDE	-0.1132
-2.1039 WERDEN	-0.3684
-3.5366 WERKSTATT	-0.1132
-3.2343 WERTE	-0.2184
-3.5366 WERTSICHERUNGSKLAUSEL	-0.0608
-3.2343 WETTBEWERBSVORTEIL	-0.2184
-3.2343 WICHTIG	-0.0578
-3.5366 WICHTIGER	-0.1132
-3.5366 WIDERLEGT	-0.1099
-2.4561 WIE	-0.7093
-3.5366 WIEDER	-0.1084
-3.2343 WILLENSERKLäRUNG	-0.1110
-3.5366 WINKEL	-0.0608
-2.9332 WIR	-0.0873
-2.2343 WIRD	-0.1045
-3.5366 WIRELESS	-0.1132
-3.5366 WIRKSAM	-0.0608
-3.2343 WIRKUNG	-0.1007
-3.5366 WIRTSCHAFTSMODELL	-0.1070
-3.5366 WISSENSCHAFT	-0.1004
-3.5366 WOHLSTAND	-0.1122
-2.8363 WORDEN	-0.0902
-3.5366 WORTEN	-0.1132
-2.4214 WURDE	-0.1197
-3.5366 WURDEN	-0.1004
-3.5366 WäRE	-0.1004
-3.5366 WüRDE	-0.1125
-3.5366 WüRFEL	-0.0608
-3.2343 Z	-0.0581
-3.5366 ZAHLEN	-0.1131
-2.9332 ZAHLREICHE	-0.1129
-3.5366 ZAHLREICHEN	-0.1132
-3.5366 ZEICHEN	-0.0608
-3.5366 ZEIGEN	-0.0608
-2.8363 ZEIT	-0.0568
-3.5366 ZEITEINHEIT	-0.0608
-3.5366 ZEITPUNKT	-0.0608
-3.5366 ZEITRAUM	-0.1122
-3.5366 ZERLEGEN	-0.0608
-3.5366 ZIELE	-0.1118
-3.5366 ZIEMLICH	-0.1132
-2.6322 ZU	-0.1103
-3.5366 ZUFäLLIGE	-0.1132
-3.5366 ZUGEORDNET	-0.0608
-3.5366 ZUKUNFTSPROGNOSE	-0.0608
-3.2343 ZUM	-0.1130
-3.2343 ZUR	-0.1131
-3.5366 ZUSäTZLICHE	-0.1130
-3.2343 ZWAR	-0.0568
-2.3892 ZWEI	-0.0813
-3.5366 ZWEIERRIEGEL	-0.0608
-3.5366 ZWEIMAL	-0.1118
-3.2343 ZWEITE	-0.0605
-3.5366 ZWEITEN	-0.1131
-3.0582 ZWISCHEN	-0.4937
-3.5366 ÜBERTRAGUNGSRATEN	-0.1057
-2.6902 äH	-0.0517
-2.4939 äHM	-0.4916
-3.0582 üBER	-0.1740
-3.5366 üBERLASSEN	-0.0608
-3.5366 üBERNOMMEN	-0.0608
-3.5366 üBERPRüFT	-0.1127
-3.5366 üBLICHERWEISE	-0.1112
-3.5366 üBTE	-0.1113

\2-grams:
-0.6387 14 JUNI 0.0365
-0.6387 18 MILLIONEN 0.0365
-0.9398 1998 ENTWICKELT -0.0238
-0.9398 1998 LEBTEN 0.0365
-0.6387 2002 VERöFFENTLICHT 0.0365
-0.0011 </s> <s> 0.0147
-2.6951 <s> AES 0.0524
-2.2825 <s> ALSO 0.0053
-2.2825 <s> AN -0.0965
-3.2320 <s> ANSCHLIEßT 0.0365
-2.6951 <s> AUF 0.2598
-2.6951 <s> AUS -0.0291
-3.2320 <s> BEI -0.0422
-3.2320 <s> BEIM -0.0238
-3.2320 <s> BEISPIELSWEISE 0.0365
-3.2320 <s> BEVOR -0.0238
-3.2320 <s> BIS -0.0238
-3.2320 <s> BISHER -0.0422
-3.2320 <s> BRRRR 0.0365
-3.2320 <s> DADURCH -0.0238
-3.2320 <s> DAMALS 0.0365
-3.2320 <s> DANACH 0.0365
-2.2825 <s> DANN -0.0511
-3.2320 <s> DARAN 0.0365
-1.3145 <s> DAS -0.0542
-2.5041 <s> DASS 0.1212
-1.1309 <s> DER -0.0395
-3.2320 <s> DEREN 0.0365
-2.6951 <s> DEUTSCHE 0.0524
-1.0251 <s> DIE -0.0544
-3.2320 <s> DIES 0.0365
-2.2825 <s> DIESE -0.0238
-3.2320 <s> DIESEN -0.0238
-3.2320 <s> DIESER -0.0238
-3.2320 <s> DIESES -0.0238
-3.2320 <s> DORT -0.0422
-1.6390 <s> DREHE 0.0365
-3.2320 <s> DREHEN 0.0365
-3.2320 <s> DRITTE -0.0238
-3.2320 <s> DURCH -0.0020
-2.5041 <s> EIN -0.0665
-2.5041 <s> EINE -0.0494
-3.2320 <s> EINER -0.0667
-3.2320 <s> ENDEN 0.0365
-2.5041 <s> ER -0.4108
-1.5519 <s> ES -0.2350
-3.2320 <s> ETWA 0.0365
-3.2320 <s> FAST 0.0365
-2.2825 <s> FERNER 0.0365
-3.2320 <s> FORDERUNGSRECHTE 0.0365
-3.2320 <s> FüGE 0.8262
-2.6951 <s> FüR 0.0497
-3.2320 <s> GANZ -0.0369
-2.2825 <s> GEGENüBER 0.1436
-3.2320 <s> GENAU 0.0225
-3.2320 <s> GESETZLICHE 0.0365
-3.2320 <s> GRUNDRECHTSVERWIRKUNG 0.0365
-3.2320 <s> GRößERE 0.0365
-3.2320 <s> HALT -0.0422
-3.2320 <s> HAST 0.0365
-2.6951 <s> HAT -0.0976
-3.2320 <s> HIERBEI 0.0365
-3.2320 <s> HIERDURCH 0.0365
-3.2320 <s> HIERFüR 0.0365
-3.2320 <s> HIERZU 0.0365
-3.2320 <s> HORIZONTAL 0.7683
-3.2320 <s> HöCHSTSTRAFE 0.0365
-1.7482 <s> ICH -0.1137
-1.8943 <s> IM -0.0465
-1.8151 <s> IN 0.0826
-3.2320 <s> INNERHALB -0.0422
-3.2320 <s> IP -0.0020
-3.2320 <s> IST -0.0748
-2.6951 <s> JE 0.0365
-3.2320 <s> JEDER -0.0238
-3.2320 <s> JEDERMANN 0.0365
-2.6951 <s> JETZT -0.0705
-3.2320 <s> KöNNEN 0.0225
-3.2320 <s> L -0.0564
-3.2320 <s> LEGE 0.7683
-2.5041 <s> LINKS 0.1517
-1.8151 <s> MAN -0.0002
-2.6951 <s> MATHEMATIK 0.0511
-3.2320 <s> MATHEMATISCHE -0.0238
-3.2320 <s> MEHRERE 0.0365
-3.2320 <s> MHM 0.0365
-2.2825 <s> MIT -0.0314
-3.2320 <s> MITTLERWEILE 0.0365
-3.2320 <s> MUSS -0.0667
-3.2320 <s> NATURWISSENSCHAFTLICHE 0.0365
-3.2320 <s> NEE 0.0365
-1.5519 <s> NEHME 0.1993
-3.2320 <s> NEHMEN 0.0365
-2.6951 <s> NEUN -0.0238
-3.2320 <s> NEUNZIG 0.1418
-3.2320 <s> NICHT -0.0602
-1.6390 <s> NIMM 0.5933
-3.2320 <s> NORWEGEN 0.0365
-2.5041 <s> NULL 0.0369
-3.2320 <s> NUR -0.0564
-3.2320 <s> OBEN 0.0125
-3.2320 <s> OBEREN -0.0238
-3.2320 <s> OBJEKT 0.0365
-3.2320 <s> OBWOHL 0.0365
-3.2320 <s> ODER -0.0623
-3.2320 <s> OHNE 0.0365
-2.6951 <s> ORGANSTREITVERFAHREN 0.0524
-3.2320 <s> PARABOLANTENNEN 0.0365
-3.2320 <s> PEREMPTORISCHE 0.0365
-3.2320 <s> RECHTEN -0.0422
-2.5041 <s> RECHTS 0.1434
-3.2320 <s> RECHTSEITIG 0.0365
-2.6951 <s> SIE -0.0474
-3.2320 <s> SIEBEN -0.0511
-1.8943 <s> SO -0.3370
-2.6951 <s> SONDERN -0.0238
-2.6951 <s> SPIEGEL 0.3311
-2.5041 <s> SPIEGELE 0.6561
-3.2320 <s> SPIEGELN -0.0238
-3.2320 <s> SPIEGLE 0.0365
-3.2320 <s> UM 0.2242
-2.6951 <s> UMGEDREHTES 0.0365
-1.0135 <s> UND -0.0790
-3.2320 <s> UNMITTELBAR 0.0365
-3.2320 <s> UNTEN -0.0397
-3.2320 <s> UNTERHALB 0.0365
-3.2320 <s> VERSCHIEDENE 0.0365
-3.2320 <s> VIER -0.0422
-3.2320 <s> VOM -0.0564
-1.8943 <s> VON 0.0020
-3.2320 <s> W- 0.0365
-2.6951 <s> WANN 0.0365
-3.2320 <s> WEIL 0.0365
-3.2320 <s> WELCHE -0.0238
-2.5041 <s> WENN -0.4108
-3.2320 <s> WER 0.0365
-3.2320 <s> WIR -0.0511
-3.2320 <s> WIRD -0.0300
-2.6951 <s> WURDE -0.0413
-2.6951 <s> ZAHLREICHE -0.0238
-3.2320 <s> ZIELE 0.0365
-3.2320 <s> ZU -0.0642
-2.2825 <s> ZWEI -0.1014
-2.2825 <s> äH -0.0318
-1.8151 <s> äHM 0.1786
-2.6951 <s> üBER -0.0332
-0.6387 ABBEDINGUNG DER -0.0758
-0.6387 ABFOLGE VON -0.0733
-0.6387 ABGEDECKT </s> 2.5164
-0.6387 ABGELEITET WERDEN 0.2564
-0.6387 ABSCHLIEßT </s> 2.5164
-0.6387 ABSCHLUß DER -0.0443
-0.9398 ABSTAND </s> 2.5164
-0.9398 ABSTAND HAT -0.0370
-0.6387 ABZUGEBEN </s> 2.5164
-0.5789 ACHT </s> 2.4271
-1.1159 ACHT NULL -0.0599
-0.6387 ADRESSATEN </s> 2.5164
-1.3377 ADRESSE </s> 2.5164
-1.3377 ADRESSE KANN -0.0642
-0.3882 ADRESSE WURDE -0.0532
-1.2408 ADRESSEN AUFGETEILT 0.0365
-1.2408 ADRESSEN EIGENTLICH 0.0365
-1.2408 ADRESSEN KöNNEN -0.0667
-1.2408 ADRESSEN STEHEN 0.0365
-0.4028 AES GILT -0.0914
-0.4028 ALGORITHMUS </s> 2.4271
-0.6387 ALKOHOLISIERT WORDEN -0.0564
-0.6387 ALLE </s> 2.5164
-0.4028 ALLEN STANDORTEN 0.0524
-1.3377 ALS ADRESSATEN 0.0365
-1.3377 ALS BAULAND 0.0365
-0.8008 ALS EIN -0.1573
-1.3377 ALS HILFSWISSENSCHAFT 0.0365
-1.2408 ALSO DASS -0.0602
-1.2408 ALSO ES -0.0756
-1.2408 ALSO IN 0.0423
-1.2408 ALSO NICHT -0.0721
-0.4028 ALTER MONOPOLE 0.0524
-1.1159 AM 14 0.0365
-1.1159 AM GRüNEN 0.0365
-1.1159 AM KOPF 0.0365
-1.1895 AN </s> 2.2952
-1.3806 AN ALLEN 0.0524
-1.9175 AN DASS -0.0721
-1.3806 AN DEM -0.0684
-1.3806 AN DEN -0.0607
-1.9175 AN DER -0.0758
-0.9680 AN DIE -0.0481
-1.9175 AN DIESES -0.0238
-1.9175 AN EINEN -0.0564
-1.9175 AN IRGENDEINEN 0.0365
-1.9175 AN SICH -0.0684
-0.1664 ANALYSIERT WERDEN -0.8202
-0.6387 ANBIETER GIBT 0.1516
-0.6387 ANDERE AUSDRüCKE 0.0365
-1.1159 ANDEREN ANWENDUNG 0.0365
-1.1159 ANDEREN PERSON -0.0238
-1.1159 ANDEREN TEILE 0.1418
-0.6387 ANDERES AUSSER 0.0365
-0.6387 ANFRAGEN WERDEN -0.0733
-0.6387 ANGERUFEN </s> 2.5164
-0.6387 ANGEWENDET </s> 2.5164
-0.6387 ANGREIFERN BEKANNT -0.0238
-0.6387 ANGRENZENDEN KOTTENFORST 0.0365
-0.6387 ANGRIFFS LäSST -0.0238
-0.9398 ANLIEGT </s> 2.5164
-0.9398 ANLIEGT OBEN -0.0677
-0.6387 ANSCHEIN ERWECKT 0.0365
-0.6387 ANSCHLIEßT </s> 2.5164
-0.6387 ANSPRüCHEN BELASTET -0.0238
-0.6387 ANTRAG SCHRIFTLICH 0.0365
-0.6387 ANTRAGSTELLER MUSS -0.0667
-0.6387 ANTRAGSTELLERS EINGEGRIFFEN 0.0365
-0.6387 ANTWORTEN BEEINTRäCHTIGT 0.0365
-0.6387 ANWENDUNG üBERNOMMEN 0.0365
-0.6387 ARBEIT GENIEßEN 0.0365
-0.6387 ARBEITSRECHT UND -0.0752
-0.6387 ART T 0.2341
-0.6387 ATTRAKTIV </s> 2.5164
-0.7039 AUCH AUSSCHLIEßLICH -0.0914
-1.2408 AUCH IN 0.0423
-1.2408 AUCH KüNDIGUNGSRECHTE 0.0365
-1.8429 AUF DEM -0.0727
-1.8429 AUF DEN -0.0733
-0.2041 AUF DER -0.2984
-1.8429 AUF DIESE -0.0599
-1.8429 AUF EINE -0.0701
-1.8429 AUF GRUNDRECHTE -0.0238
-1.8429 AUF KURZEN 0.0365
-0.6387 AUFGEBAUT WERDEN 0.2564
-0.6387 AUFGESPIELT WERDEN 0.2564
-0.6387 AUFGETEILT </s> 2.5164
-0.4028 AUFRECHTERHALTUNG ALTER 0.0524
-1.7849 AUS </s> 2.5164
-1.0569 AUS DEM -0.0599
-1.0569 AUS DER -0.0382
-1.7849 AUS DIESEM -0.0564
-1.7849 AUS EINEM -0.0642
-1.7849 AUS EINER -0.0667
-1.7849 AUS FRANZöSISCHEN 0.0365
-1.7849 AUS GEZäHLT 0.0365
-0.6387 AUSDRüCKE </s> 2.5164
-0.6387 AUSGEFüLLT IST 0.0113
-0.6387 AUSGEGANGEN WERDEN 0.2564
-0.6387 AUSGEGLICHEN </s> 2.5164
-0.6387 AUSGENUTZT WORDEN 0.0456
-0.6387 AUSGESTALTET SIND 0.3034
-0.6387 AUSGESTRAHLT </s> 2.5164
-0.6387 AUSGETAUSCHT </s> 2.5164
-0.6387 AUSLäNDISCHES RECHTSGUT 0.0365
-0.6387 AUSNAHMEN VOM -0.0564
-0.6387 AUSSCHAUT WIE 0.5252
-0.8008 AUSSCHLIEßLICH AUF 0.2598
-0.8008 AUSSCHLIEßLICH DEM -0.1434
-1.3377 AUSSCHLIEßLICH ZUGEORDNET 0.0365
-0.6387 AUSSER DAS -0.0754
-0.0580 AUSSIEHT WIE 0.3967
-0.6387 AUSTAUSCH DIENT 0.0365
-0.6387 AUSWAHLFELD UND -0.0618
-0.6387 AUßERHALB DES -0.0723
-0.6387 AXIOME ZU -0.0642
-0.6387 BAUARTEN </s> 2.5164
-0.9398 BAUCH REIN 0.0561
-0.9398 BAUCH UND -0.0711
-0.6387 BAULAND VERäNDERT 0.0365
-1.1159 BAUSTEIN DAZWISCHEN 0.0365
-0.5789 BAUSTEIN DER -0.0748
-0.6387 BAUSTEINE MüSSEN -0.0238
-0.9398 BAUSTEINEN IN 0.0423
-0.9398 BAUSTEINEN IST -0.0698
-0.6387 BEACHTEN </s> 2.5164
-0.6387 BEBAUUNGSPLAN WIRD -0.0718
-0.6387 BEDARF ES -0.0756
-0.6387 BEDEUTET DASS -0.0323
-0.6387 BEEINTRäCHTIGT </s> 2.5164
-0.6387 BEENDET WORDEN 0.0456
-0.6387 BEFESTIGEN </s> 2.5164
-0.2913 BEFINDET </s> 1.4399
-1.2408 BEFINDET SICH -0.0684
-0.6387 BEHöRDE STüTZT 0.0365
-1.1159 BEI DER -0.0758
-1.1159 BEI HOLZ 0.0365
-1.1159 BEI NOTEBOOKS -0.0238
-1.1159 BEIDEN BLAUEN 0.0365
-0.5789 BEIDEN WERTE 0.0524
-0.9398 BEIM DURCHSCHNITTLICHEN 0.0365
-0.9398 BEIM VERTRAG 0.0365
-0.6387 BEIN ODER -0.0623
-0.6387 BEINEN DA 0.1418
-0.6387 BEISPIELSWEISE DER -0.0758
-0.9398 BEKANNT </s> 2.5164
-0.9398 BEKANNT SEIN 0.0365
-0.9398 BELASTET </s> 2.5164
-0.9398 BELASTET WERDEN 0.2564
-1.1159 BENACHTEILIGT </s> 2.5164
-0.5789 BENACHTEILIGT SIND 0.2140
-0.9398 BENöTIGT </s> 2.5164
-0.9398 BENöTIGT MAN -0.0642
-0.6387 BEOBACHTER DER -0.0758
-0.6387 BERECHTIGT </s> 2.5164
-0.5789 BEREITS </s> 2.4271
-1.1159 BEREITS BESTEHENDE 0.0365
-0.9398 BERüHRT HALT -0.0422
-0.9398 BERüHRT MIT -0.0709
-0.6387 BESCHLEUNIGT </s> 2.5164
-0.9398 BESCHRäNKT </s> 2.5164
-0.9398 BESCHRäNKT VERSCHULDENSFäHIGEN 0.0365
-0.6387 BESCHWERDEFüHRER ALS -0.0564
-0.6387 BESCHWERDEFüHRERS MUSS -0.0411
-0.6387 BESITZT DIE -0.0759
-0.6387 BESTANDTEIL DER -0.0758
-0.6387 BESTEHENDE QUADRATE 0.0365
-0.9398 BESTEHT </s> 2.5164
-0.9398 BESTEHT HAUPTSäCHLICH 0.0365
-0.6387 BESTIMMTE POSITION 0.0365
-0.6387 BESTRAFT ES -0.0756
-0.6387 BESUCHEN </s> 2.5164
-0.6387 BETREFFEN KöNNEN -0.0411
-0.6387 BETRIEBSKOSTEN WERDEN -0.0733
-0.9398 BEVOR DIE -0.0759
-0.9398 BEVOR ICH -0.0684
-0.6387 BEVöLKERUNG BESTEHT -0.0238
-0.6387 BEWEGE ES -0.0204
-0.6387 BEWEIS MUSS -0.0667
-0.6387 BILDES </s> 2.5164
-0.6387 BILDET SOMIT 0.0365
-0.9398 BIS GANZ -0.0656
-0.9398 BIS RAN 0.0365
-1.1159 BISHER NICHT -0.0721
-1.1159 BISHER SIND -0.0684
-1.1159 BISHER UNBEKANNT 0.0365
-0.7039 BIT FüR -0.1262
-0.7039 BIT NACHEINANDER 0.0524
-0.6387 BITRATEN </s> 2.5164
-0.6387 BITS WERDEN -0.0733
-0.6387 BLAUEN BAUSTEINEN -0.0238
-0.6387 BLEIBT </s> 2.5164
-0.6387 BLOCK ABSTAND -0.0238
-0.6387 BLOCKVERSCHLüSSELUNG VERSCHLüSSELT 0.4204
-0.6387 BLOß EIN -0.0743
-0.6387 BLöCKE VON -0.0733
-0.6387 BOHRUNG HERAUS 0.0365
-0.6387 BREMSBELäGE REDUZIERT 0.0365
-0.6387 BREMSE WIRD -0.0718
-0.6387 BREMSWIRKUNG NACH -0.0723
-0.6387 BRRRR </s> 2.5164
-0.6387 BUCHSTABE WURDE -0.0496
-1.3377 BUCHSTABEN DES -0.0723
-0.3882 BUCHSTABEN EINES -0.9250
-1.3377 BUCHSTABEN UNTERDRüCKT 0.0365
-0.6387 BUNDESMINISTER ODER -0.0623
-0.6387 BUNDESREPUBLIK DEUTSCHLAND -0.0511
-0.6387 BUNDESTAGSPRäSIDENT ODER -0.0623
-0.6387 BUNDESVERFASSUNGSGERICHT IST -0.0748
-0.9398 BUNDESVERFASSUNGSGERICHTSGESETZ GEREGELT 0.1418
-0.9398 BUNDESVERFASSUNGSGERICHTSGESETZ NICHT -0.0721
-0.6387 BüRGER </s> 2.5164
-0.6387 BüRGERRECHTEN </s> 2.5164
-0.6387 C </s> 2.5164
-1.1159 COMPUTER AUßERHALB 0.0365
-1.1159 COMPUTER EINZUDRINGEN 0.0365
-1.1159 COMPUTER NOCH 0.0824
-0.6387 COMPUTERS STARK -0.0238
-0.4028 DA IST -0.0727
-0.9398 DADURCH AUSGENUTZT 0.0365
-0.9398 DADURCH IST -0.0201
-0.6387 DAMALS WAREN 0.0365
-0.6387 DANACH LEGE 0.7683
-1.7179 DANN AN -0.0584
-1.7179 DANN GILT -0.0564
-1.7179 DANN HALT -0.0422
-1.7179 DANN HORIZONTAL 0.7683
-1.1810 DANN IN 0.0566
-1.7179 DANN KAUFE 0.0365
-1.7179 DANN NACH 0.1516
-1.7179 DANN SETZE -0.0564
-1.7179 DANN SPIEGELN -0.0238
-1.7179 DANN WIRKSAM 0.0365
-1.7179 DANN ZU -0.0642
-0.6387 DARAN MUSS -0.0667
-0.6387 DARUM IN -0.0113
-2.4900 DAS AUS -0.0697
-1.1523 DAS AUSSIEHT 0.2070
-2.4900 DAS BUNDESVERFASSUNGSGERICHT 0.0365
-2.4900 DAS EINZIGE -0.0238
-2.4900 DAS ERREICHEN 0.0365
-2.4900 DAS FINANZAMT 0.0365
-2.4900 DAS GEBILDE 0.0365
-2.4900 DAS GETAN 0.0365
-2.4900 DAS I 0.0365
-1.9531 DAS IN -0.0640
-1.1523 DAS IST 0.0131
-2.4900 DAS KREDITINSTITUT 0.0365
-2.4900 DAS KäSTCHEN -0.0564
-1.5405 DAS L 0.0482
-2.4900 DAS LEBEN 0.0365
-2.4900 DAS LINKE 0.0365
-2.4900 DAS LOCH -0.0238
-2.4900 DAS MIETVERHäLTNIS 0.0365
-2.4900 DAS NICHT -0.0602
-2.4900 DAS OBERE -0.0020
-1.9531 DAS QUADRAT -0.0084
-2.4900 DAS RECHNEN 0.0365
-2.4900 DAS RECHTE -0.0684
-2.4900 DAS RECHTSMITTEL 0.0365
-2.4900 DAS S 0.1418
-2.4900 DAS SCHALTROHR 0.0365
-2.4900 DAS SCHULDVERHäLTNIS -0.0238
-2.4900 DAS SIGNIEREN 0.0365
-2.4900 DAS SYSTEM 0.0365
-0.5088 DAS TEIL -0.0709
-2.4900 DAS UNMITTELBARE 0.0365
-2.4900 DAS UNTERSTE 0.0365
-2.4900 DAS VöLKERRECHT 0.0365
-1.9531 DAS WAR -0.0422
-2.4900 DAS WäRE 0.0365
-2.4900 DAS ZWEITE -0.0238
-2.4900 DAS äHM -0.0677
-1.9610 DASS </s> 2.5164
-1.9610 DASS AUSSIEHT 0.8262
-1.9610 DASS BEIM -0.0238
-1.4240 DASS DAS 0.0863
-1.0115 DASS DIE -0.0714
-1.9610 DASS DU -0.0599
-1.9610 DASS EIN -0.0743
-0.4771 DASS ES -0.0739
-1.9610 DASS IST -0.0698
-1.9610 DASS LINKS -0.0734
-1.9610 DASS SIE -0.0623
-1.9610 DASS äH -0.0623
-0.6387 DATEN VERFAHREN 0.0365
-0.6387 DATENAUSTAUSCH FINDET 0.0365
-0.6387 DATENüBERTRAGUNG SPüRBAR 0.0365
-0.6387 DAUERHAFT BESTEHT -0.0238
-0.6387 DAZWISCHEN FREI -0.0238
-0.6387 DDR KEINE -0.0599
-0.6387 DEKODIEREN </s> 2.5164
-0.6387 DELIKTISCHE HAFTUNG 0.0365
-2.0190 DEM AUSWAHLFELD 0.0365
-2.0190 DEM DIE -0.0759
-2.0190 DEM DRITTEN 0.0365
-2.0190 DEM ELEPHANTEN -0.0238
-2.0190 DEM FUß -0.0511
-2.0190 DEM GEBIET 0.0365
-1.2910 DEM GLäUBIGER 0.0436
-2.0190 DEM KETTENBLATT 0.0365
-2.0190 DEM KLARTEXT 0.0365
-2.0190 DEM LEEREN 0.0365
-2.0190 DEM MIETVERTRAG 0.0365
-2.0190 DEM MITTLEREN 0.0365
-2.0190 DEM OBEREN -0.0238
-2.0190 DEM SCHUTZ 0.0365
-2.0190 DEM T 0.2341
-2.0190 DEM TEIL -0.0587
-2.0190 DEM UNTERTEIL 0.0365
-1.4820 DEM VERKäUFER -0.0332
-2.0190 DEM VERTRAGSVERHäLTNIS 0.0365
-2.0190 DEM VORTRAG 0.0365
-2.0859 DEN ABSCHLUß 0.0365
-2.0859 DEN ANGREIFERN 0.0365
-1.5490 DEN BAUCH 0.0365
-2.0859 DEN BAUSTEIN 0.0561
-2.0859 DEN BEBAUUNGSPLAN 0.0365
-2.0859 DEN BEIDEN -0.0422
-2.0859 DEN BEINEN 0.0365
-2.0859 DEN BESCHWERDEFüHRER 0.0365
-2.0859 DEN COMPUTER -0.0422
-2.0859 DEN DATEN 0.0365
-1.5490 DEN FUß 0.0511
-2.0859 DEN GEGENSTAND -0.0238
-2.0859 DEN GLEICHEN 0.0365
-2.0859 DEN LINKEN -0.0642
-2.0859 DEN NOTEBOOKS -0.0238
-2.0859 DEN PARTEIEN 0.0365
-2.0859 DEN PRIVATEN 0.0365
-2.0859 DEN QUADER 0.0365
-2.0859 DEN RAND -0.0422
-2.0859 DEN RECHTEN -0.0422
-2.0859 DEN ROUTER -0.0564
-2.0859 DEN RüSSEL -0.0238
-1.5490 DEN UMFANG 0.0524
-2.0859 DEN VERWALTUNGSAKT 0.0365
-2.0859 DEN WüRFEL 0.0365
-0.6387 DENN </s> 2.5164
-0.6387 DENNOCH BESTRAFT 0.0365
-2.0886 DER </s> 2.4271
-2.6255 DER ANSCHEIN 0.0365
-2.6255 DER ANTRAG 0.0365
-2.6255 DER ANTRAGSTELLER 0.0365
-2.6255 DER AUSTAUSCH 0.0365
-2.6255 DER BAUSTEIN 0.0561
-2.6255 DER BLOCKVERSCHLüSSELUNG 0.0365
-2.6255 DER BOHRUNG 0.0365
-2.6255 DER BREMSE 0.0365
-2.6255 DER BUCHSTABEN -0.0564
-2.6255 DER BUNDESTAGSPRäSIDENT 0.0365
-2.6255 DER DATENAUSTAUSCH 0.0365
-2.6255 DER DDR 0.0365
-2.6255 DER DEUTSCHEN -0.0238
-2.6255 DER DURCHSCHNITTLICHE 0.0365
-2.6255 DER ECKE 0.3211
-2.6255 DER EHRENRüHRIGEN 0.0365
-2.6255 DER EIGENEN 0.0365
-2.6255 DER EINZIGE -0.0238
-2.6255 DER ERKLäRUNGSEMPFäNGERIN 0.0365
-2.0886 DER FIGUR 0.0223
-2.6255 DER FLäCHENTARIFVERTRAG 0.0365
-2.0886 DER GANZ -0.0246
-2.6255 DER GEKAUFTEN 0.0365
-2.6255 DER GESCHäDIGTE 0.0365
-2.6255 DER GRAFISCHEN 0.0365
-2.6255 DER GRUNDRECHTSINHALT 0.0365
-2.6255 DER HINTERRADGABEL 0.0365
-2.6255 DER HOHEITSAKT 0.0365
-2.6255 DER INGENIEURWISSENSCHAFT 0.0365
-2.6255 DER IP 0.1516
-1.6760 DER KäUFER 0.0463
-2.0886 DER LANDESEBENE 0.0524
-1.1417 DER LINKEN -0.0703
-2.6255 DER MIETER 0.0365
-2.6255 DER MINDESTLOHN 0.0365
-1.0837 DER MITTE -0.1107
-2.6255 DER NACHKRIEGSZEIT 0.0365
-2.6255 DER NACHWEIS 0.0365
-2.6255 DER NACHWIRKUNGSZEIT 0.0365
-2.6255 DER NICHT -0.0721
-2.6255 DER NORM -0.0238
-2.6255 DER NORMADRESSAT 0.0365
-2.0886 DER OBERSEITE 0.0365
-2.6255 DER OBERSTEN 0.0365
-2.6255 DER ORGANSTREIT 0.0365
-2.6255 DER PHYSIK 0.0365
-2.6255 DER PROGRAMMFEHLER 0.0365
-2.0886 DER RECHTE -0.0850
-2.6255 DER RECHTS -0.0174
-2.6255 DER RHEINISCHE 0.0365
-2.0886 DER ROUTER -0.0350
-2.6255 DER RüSSEL -0.0238
-2.6255 DER SCHADEN 0.0365
-2.6255 DER SCHLüSSELSTROM 0.0365
-2.6255 DER SCHMERZ 0.0365
-2.6255 DER SICH -0.0684
-2.6255 DER SICHERHEIT -0.0238
-2.6255 DER SO -0.0706
-2.6255 DER STEUERHINTERZIEHUNG 0.0365
-2.6255 DER STILLSCHWEIGENDEN 0.0365
-2.6255 DER STRAFTAT 0.0365
-2.6255 DER TECHNISCHE -0.0238
-2.6255 DER TYPENZWANG 0.0365
-2.6255 DER TäTER 0.0365
-2.6255 DER UNTERKANTE 0.0365
-2.0886 DER UNVERSCHLüSSELTE 0.0524
-2.6255 DER URSPRUNG 0.0365
-2.6255 DER VERMITTLUNGSSTELLE 0.0365
-2.0886 DER VERTRAGSPARTNER 0.0524
-2.6255 DER ZEIT -0.0564
-2.6255 DER ZEITRAUM 0.0365
-2.6255 DER ZWEITEN 0.0365
-0.6387 DEREN KRYPTOGRAFISCHE -0.0238
-0.6387 DERER POLITISCHE 0.0365
-1.9812 DES ANGRIFFS 0.0365
-1.9812 DES ANTRAGSTELLERS 0.0365
-1.9812 DES BESCHWERDEFüHRERS 0.0365
-1.9812 DES BILDES 0.0365
-1.9812 DES DROMEDARS 0.0365
-1.9812 DES ELEPHANTEN -0.0238
-1.9812 DES GEHEIMTEXTS -0.0511
-1.9812 DES GRUNDSTüCKS 0.0365
-1.9812 DES HöCKERS 0.0365
-1.9812 DES JEWEILIGEN 0.0365
-1.0317 DES KAMELS 0.0463
-1.9812 DES KREUZES 0.0365
-1.9812 DES NETZWERKS 0.0365
-1.9812 DES QUADRATES 0.0365
-1.4442 DES RECHTECKS 0.0524
-1.4442 DES SCHULDVERHäLTNISSES 0.0524
-1.9812 DES SYSTEMS 0.0365
-1.9812 DES TEILNEHMERS 0.0365
-0.6387 DESIGNS HABEN -0.0238
-0.6387 DESTO GRößER -0.0422
-0.6387 DEUTLICH BESCHLEUNIGT 0.0365
-0.4028 DEUTSCHE STRAFRICHTER 0.0524
-0.4028 DEUTSCHEM STRAFRECHT 0.0524
-0.9398 DEUTSCHEN SACHENRECHT 0.0365
-0.9398 DEUTSCHEN VERFASSUNG 0.0365
-1.2408 DEUTSCHLAND </s> 2.5164
-0.7039 DEUTSCHLAND VERFüGBAR 0.3311
-1.2408 DEUTSCHLAND üBTE 0.0365
-0.9398 DICH JETZT -0.0511
-0.9398 DICH KENNEN 0.0365
-2.6431 DIE </s> 2.5164
-2.6431 DIE ADRESSE 0.1516
-2.6431 DIE ANDEREN -0.0422
-2.1061 DIE AUFRECHTERHALTUNG 0.0524
-2.6431 DIE BEHöRDE 0.0365
-2.6431 DIE BEI -0.0422
-2.1061 DIE BEIDEN -0.0332
-2.1061 DIE BENACHTEILIGT -0.0332
-2.6431 DIE BETRIEBSKOSTEN 0.0365
-2.6431 DIE BEVöLKERUNG 0.0365
-2.6431 DIE BREMSWIRKUNG 0.0365
-2.6431 DIE BUNDESREPUBLIK 0.0365
-2.6431 DIE DAS -0.0754
-2.6431 DIE DATENüBERTRAGUNG 0.0365
-2.6431 DIE DELIKTISCHE 0.0365
-2.1061 DIE DIE -0.0749
-1.9151 DIE ECKE -0.1578
-2.6431 DIE EIGENSCHAFT 0.0365
-2.6431 DIE EINIGUNG 0.0365
-2.6431 DIE EINMAL -0.0131
-2.6431 DIE EINREDE -0.0238
-2.1061 DIE ENTFERNUNG 0.0365
-2.6431 DIE ERWERBERIN 0.0365
-1.6936 DIE FIGUR 0.0482
-2.1061 DIE FORDERUNG 0.0524
-2.6431 DIE FREIHEIT 0.0365
-2.6431 DIE FRüCHTE 0.0365
-2.6431 DIE GEGENSäTZE 0.0365
-2.6431 DIE GEHEIME 0.0365
-2.6431 DIE GENAUIGKEIT 0.0365
-2.6431 DIE GESCHICHTE -0.0238
-2.6431 DIE GETRIEBENABE 0.0365
-2.6431 DIE GRUNDRECHTE -0.0238
-2.6431 DIE HERAUSGABE 0.0365
-1.9151 DIE HäUFIGKEIT -0.2162
-2.6431 DIE HöCHSTE 0.0365
-2.6431 DIE HüLLE 0.0365
-2.6431 DIE IN 0.0423
-2.6431 DIE JEWEILIGE 0.0365
-2.6431 DIE KASERNEN 0.0365
-2.6431 DIE KONSTRUKTION 0.0365
-2.6431 DIE KRYPTOGRAFISCHE -0.0238
-2.6431 DIE LEBENSLANGE 0.0365
-2.1061 DIE MATHEMATIK 0.0511
-2.6431 DIE MITGLIEDER 0.0365
-2.1061 DIE MITTE -0.0583
-2.6431 DIE MITTELLINIE 0.0365
-2.1061 DIE MODERNE 0.0524
-2.6431 DIE NACH -0.0519
-2.1061 DIE OBERE -0.0350
-2.6431 DIE PARABOLANTENNE 0.0365
-2.6431 DIE PERSöNLICHE 0.0365
-2.6431 DIE POLIZEI 0.0365
-2.6431 DIE PROZESSFäHIGKEIT 0.0365
-1.2262 DIE RECHTE -0.0003
-2.6431 DIE RECHTSNORM 0.0365
-2.6431 DIE RESSOURCEN 0.0365
-2.6431 DIE SACHE -0.0238
-2.6431 DIE SCHENKEL 0.0365
-2.6431 DIE SCHNAUZE 0.0365
-2.6431 DIE SIGNIERUNG 0.0365
-2.6431 DIE STROMVERSCHLüSSELUNG 0.0365
-2.6431 DIE UNTEREN -0.0238
-2.6431 DIE VERANTWORTLICHKEIT 0.0365
-2.6431 DIE VERFASSUNGSBESCHWERDE -0.0238
-2.6431 DIE VERLETZUNG 0.0365
-2.6431 DIE VERMöGENSVERTEILUNG 0.0365
-2.1061 DIE VERSCHLüSSELUNG 0.0365
-2.6431 DIE VERWENDUNG 0.0365
-2.6431 DIE VERWIRKUNG 0.0365
-2.6431 DIE WERKSTATT 0.0365
-2.1061 DIE WILLENSERKLäRUNG 0.0365
-2.1061 DIE WIRKUNG 0.0365
-2.6431 DIE ZWEI -0.0697
-2.6431 DIE ZWEITE -0.0238
-0.6387 DIEJENIGE WISSENSCHAFT 0.0365
-0.6387 DIENEN DEM -0.0727
-0.6387 DIENT NICHT -0.0721
-0.6387 DIES GILT -0.0564
-1.4169 DIESE ECKE -0.0667
-1.4169 DIESE FUNKTECHNIK 0.0365
-1.4169 DIESE LüCKE 0.0365
-1.4169 DIESE NORM -0.0238
-1.4169 DIESE SICHERHEITSLüCKEN 0.0365
-1.4169 DIESE SOFTWARE -0.0422
-0.8008 DIESEM FALL -0.0332
-1.3377 DIESEM GRUND -0.0238
-1.3377 DIESEM LOCH -0.0238
-1.3377 DIESEM VIERECK 0.0365
-0.9398 DIESEN ANBIETER 0.0365
-0.9398 DIESEN FüNF 0.0365
-0.9398 DIESER SOFTWARE -0.0422
-0.9398 DIESER STANDARD 0.0365
-0.9398 DIESES LAND 0.0365
-0.9398 DIESES Z -0.0238
-0.9398 DIREKT AN -0.0716
-0.9398 DIREKT IN -0.0699
-1.1159 DORT IN -0.0699
-1.1159 DORT TWO 0.0365
-1.1159 DORT WERDEN -0.0733
-0.6387 DRAN HAT -0.0697
-0.6387 DRAUF </s> 2.5164
-0.0512 DREHE ES -0.2322
-1.5930 DREHE ES_HUNDERTACHTZIG_GRAD 0.0365
-0.6387 DREHEN ES -0.0756
-0.6387 DREHST </s> 2.5164
-1.4169 DREI </s> 2.5164
-1.4169 DREI DREI -0.0599
-1.4169 DREI EINS 0.0561
-1.4169 DREI SIEBEN 0.0189
-1.4169 DREI TEILE 0.1418
-1.4169 DREI ZWEI -0.0516
-0.6387 DREIER- RIEGEL 0.0365
-0.6387 DREIMAL UM 0.2242
-0.6387 DRIN IN 0.0423
-0.9398 DRITTE KöNNEN -0.0667
-0.9398 DRITTE TEIL -0.0735
-0.6387 DRITTEN üBERLASSEN 0.0365
-0.6387 DROMEDARS EIN -0.0173
-1.4169 DU DASS 0.0993
-1.4169 DU DIE -0.0759
-1.4169 DU ES -0.0756
-1.4169 DU MICH -0.0238
-1.4169 DU NACHRICHTEN -0.0238
-1.4169 DU VERLIERST 0.0365
-0.6387 DUMM HäLTST 0.0365
-0.8008 DURCH DEN -0.0697
-1.3377 DURCH GEFäLSCHTE 0.0365
-1.3377 DURCH NEUE -0.0238
-1.3377 DURCH VERöLTE 0.0365
-0.9398 DURCHGEFüHRT </s> 2.5164
-0.9398 DURCHGEFüHRT WERDEN 0.2564
-0.6387 DURCHSCHNITTLICHE INTERNETNUTZER 0.0365
-0.6387 DURCHSCHNITTLICHEN BEOBACHTER 0.0365
-0.6387 DYNAMISCH VERGEBEN 0.0365
-0.6387 EBENFALLS DURCHGEFüHRT -0.0238
-0.2218 ECKE </s> 1.6931
-1.6387 ECKE DER -0.0733
-1.6387 ECKE DES -0.0609
-1.6387 ECKE MIT -0.0561
-1.6387 ECKE REIN 0.0561
-0.6387 EGAL IN -0.0748
-0.6387 EH DIREKT -0.0238
-0.6387 EHRENRüHRIGEN TATSACHE 0.0365
-0.6387 EIGENEN ARBEIT 0.0365
-0.6387 EIGENER RECHTE -0.0684
-0.6387 EIGENSCHAFT DES -0.0723
-0.6387 EIGENTLICH PERMANENT -0.0238
-0.6387 EIGENTLICHEN SINN 0.0365
-0.8921 EIN </s> 1.8972
-2.2298 EIN AUSLäNDISCHES 0.0365
-2.2298 EIN BEIN 0.0365
-2.2298 EIN BLOCK 0.0365
-2.2298 EIN BUNDESMINISTER 0.0365
-2.2298 EIN DASS -0.0323
-2.2298 EIN EINBRECHER 0.0365
-2.2298 EIN ERFOLGREICHES 0.0365
-2.2298 EIN FELD 0.0365
-2.2298 EIN FREIES 0.0365
-2.2298 EIN GANZ -0.0656
-2.2298 EIN GERINGERER 0.0365
-2.2298 EIN HAUS 0.0365
-1.6929 EIN KLEINES 0.0365
-2.2298 EIN KREUZ 0.0365
-2.2298 EIN L -0.0020
-2.2298 EIN M 0.0365
-2.2298 EIN NACH 0.1516
-2.2298 EIN PORT 0.0365
-1.6929 EIN QUADRAT -0.0474
-2.2298 EIN S 0.1418
-1.6929 EIN SEHR -0.1141
-2.2298 EIN SIGNAL 0.0365
-1.6929 EIN SO 0.1929
-2.2298 EIN STRENG 0.0365
-2.2298 EIN STüCK 0.0365
-2.2298 EIN T -0.0511
-2.2298 EIN TEIL -0.0735
-2.2298 EIN U -0.0238
-2.2298 EIN WICHTIGER 0.0365
-2.2298 EIN WIEDER 0.0365
-0.6387 EINBEZIEHUNG IST -0.0748
-0.6387 EINBRECHER WüRDE 0.0365
-1.8148 EINE ADRESSE -0.0564
-1.8148 EINE ART 0.0365
-1.8148 EINE EINBEZIEHUNG 0.0365
-1.8148 EINE ENTSPRECHENDE 0.0365
-1.8148 EINE FRAKTION 0.0365
-1.8148 EINE GANZ -0.0656
-1.8148 EINE GERINGE 0.0365
-1.8148 EINE GOLDKLAUSEL 0.0365
-1.8148 EINE IP 0.1516
-1.8148 EINE PARLAMENTARISCHE 0.0365
-1.8148 EINE STATISCHE 0.0365
-1.8148 EINE VOLLSTäNDIG -0.0238
-1.8148 EINE WERTSICHERUNGSKLAUSEL 0.0365
-1.8148 EINE ZIEMLICH 0.0365
-1.8148 EINE ZUSäTZLICHE 0.0365
-1.5418 EINEM BAUSTEIN -0.0422
-1.5418 EINEM COMPUTER -0.0422
-1.5418 EINEM DREIER- 0.0365
-1.5418 EINEM KLEINEM 0.0365
-1.5418 EINEM PROGRAMM 0.1418
-1.5418 EINEM ROUTER -0.0564
-1.5418 EINEM SCHULDVERHäLTNIS -0.0238
-1.5418 EINEM ZWEIERRIEGEL 0.0365
-1.3377 EINEN GUTEN 0.0365
-0.8008 EINEN INDIREKTEN 0.0524
-1.3377 EINEN STRAFRAHMEN 0.0365
-1.3377 EINEN VIELSEITIGEN 0.0365
-1.1018 EINER ANDEREN -0.0046
-1.6387 EINER BESCHRäNKT -0.0238
-1.6387 EINER DER -0.0733
-1.6387 EINER ENERGIEERSPARNIS 0.0365
-1.6387 EINER FESTEN 0.0365
-1.6387 EINER HöHEREN 0.0365
-1.6387 EINER KOMBINATION 0.0365
-1.6387 EINER SEHR -0.0623
-1.6387 EINER ZUKUNFTSPROGNOSE 0.0365
-1.3377 EINES COMPUTERS 0.0365
-0.3882 EINES GEHEIMTEXTS -0.8425
-1.3377 EINES JAHRES 0.0365
-0.4028 EINFACH IN -0.0470
-0.6387 EINGEBAUT </s> 2.5164
-0.6387 EINGEGRIFFEN </s> 2.5164
-0.6387 EINGEPASST </s> 2.5164
-0.6387 EINGEREICHT </s> 2.5164
-0.6387 EINGESCHRäNKT </s> 2.5164
-0.6387 EINIGERMAßEN AUSGEGLICHEN 0.0365
-0.6387 EINIGUNG ZWISCHEN 0.4204
-1.5930 EINMAL </s> 2.5164
-1.0561 EINMAL HORIZONTAL 0.6789
-1.5930 EINMAL NACH 0.1516
-1.5930 EINMAL UM 0.2242
-0.8650 EINMAL VERTIKAL 0.7433
-0.9398 EINREDE BEDEUTET 0.0365
-0.9398 EINREDE DAUERHAFT 0.0365
-0.5789 EINS </s> 2.4271
-1.1159 EINS ACHT -0.0422
-0.6387 EINVERSTäNDNIS DER -0.0758
-0.6387 EINWANDERER SEHR -0.0623
-0.9398 EINZIGE GRUND -0.0238
-0.9398 EINZIGE TEIL -0.0735
-0.6387 EINZUDRINGEN </s> 2.5164
-0.6387 ELEMENTE FüR 0.0351
-0.9398 ELEPHANTEN AUF 0.3491
-0.9398 ELEPHANTEN UNTEN -0.0132
-0.6387 ENDEN JEWEILS 0.0365
-0.6387 ENERGIEERSPARNIS </s> 2.5164
-0.6387 ENERGIEVERBRAUCH </s> 2.5164
-0.6387 ENGEREN SINNE 0.0365
-0.9398 ENTFERNUNG DES -0.0723
-0.9398 ENTFERNUNG PRO 0.0365
-0.5789 ENTSCHEIDEN NACH -0.1503
-1.1159 ENTSCHEIDEN WIE -0.0684
-0.6387 ENTSCHEIDUNGSFREIHEIT WIRD -0.0300
-0.6387 ENTSPRECHENDE NETZWERKKARTE 0.0365
-0.6387 ENTWEDER PERMANENT -0.0238
-0.9398 ENTWICKELT </s> 2.5164
-0.9398 ENTWICKELT WORDEN 0.0456
-1.4838 ER </s> 2.5164
-1.4838 ER DAS -0.0754
-0.5344 ER HAT -0.1014
-1.4838 ER MIT -0.0709
-1.4838 ER WIRD -0.0718
-0.6387 ERBRACHT WERDEN 0.2564
-0.6387 ERFOLGREICHES WIRTSCHAFTSMODELL 0.0365
-0.6387 ERGEBEN </s> 2.5164
-0.6387 ERHALTEN </s> 2.5164
-0.6387 ERHEBEN </s> 2.5164
-0.6387 ERHöHT </s> 2.5164
-0.6387 ERINNERT MICH -0.0238
-0.6387 ERKENNTNIS </s> 2.5164
-0.6387 ERKENNTNISSE KöNNEN -0.0667
-0.6387 ERKLäRUNGSEMPFäNGERIN </s> 2.5164
-0.4028 ERLANGT </s> 2.4271
-0.6387 ERLISCHT DAS -0.0754
-0.6387 ERMITTELN </s> 2.5164
-0.6387 ERMöGLICHT IMMER -0.0422
-0.6387 ERREICHEN HöHERER 0.0365
-0.6387 ERSTATTEN MüSSEN -0.0238
-0.6387 ERSTMAL NICHT -0.0721
-0.6387 ERWECKT WIRD -0.0300
-0.6387 ERWERBERIN HAT -0.0697
-2.5526 ES 1998 -0.0238
-0.9138 ES </s> 1.5933
-2.5526 ES ANLIEGT -0.0238
-2.0156 ES AUF 0.2598
-2.0156 ES BERüHRT 0.0365
-1.8246 ES DANN -0.0714
-2.5526 ES DEM -0.0727
-2.5526 ES DER -0.0758
-2.5526 ES EH 0.0365
-2.5526 ES EINER -0.0667
-1.0107 ES EINMAL -0.1361
-1.6031 ES GEHT 0.0463
-2.0156 ES GIBT -0.0350
-2.5526 ES GRENZT -0.0238
-2.0156 ES HANDELT -0.0332
-2.0156 ES HORIZONTAL 0.6789
-2.0156 ES IM -0.0649
-1.6031 ES IN -1.0342
-2.0156 ES IST -0.0677
-2.5526 ES KEINE -0.0599
-2.5526 ES KOMMT 0.0365
-2.5526 ES LIEGEN 0.0365
-2.0156 ES MIT -0.0219
-2.5526 ES MUNITIONSLAGER 0.0365
-2.5526 ES NEUNZIG_GRAD -0.0623
-2.5526 ES NICHT -0.0602
-2.5526 ES OBEN -0.0677
-2.0156 ES PASST 0.0365
-2.5526 ES SEHR -0.0623
-2.5526 ES SEI 0.0365
-2.0156 ES SICH -0.0382
-2.5526 ES SIND -0.0684
-1.6031 ES SO -0.1057
-2.0156 ES UM 0.1349
-2.5526 ES UM_NEUNZIG_GRAD 0.0365
-2.0156 ES UNTEN -0.1426
-1.8246 ES VERTIKAL 0.7433
-2.5526 ES WOHLSTAND 0.0365
-2.5526 ES ZAHLREICHE -0.0511
-2.5526 ES ZWEIMAL 0.0365
-2.5526 ES äH -0.0623
-2.5526 ES äHM 0.3625
-0.6387 ES_HUNDERTACHTZIG_GRAD LINKS 0.1814
-0.6387 ETWA 18 0.0365
-0.6387 EXAKT GEREGELT 0.1418
-0.6387 EXPERIMENTE WIDERLEGT 0.0365
-1.1159 FALL HAT -0.0083
-0.5789 FALL VON -0.1537
-0.6387 FAMILIENRECHT </s> 2.5164
-0.6387 FAST IN 0.0423
-0.6387 FELD FREI -0.0238
-1.1159 FERNER BENöTIGT -0.0238
-1.1159 FERNER SOLL -0.0599
-1.1159 FERNER WERDEN -0.0733
-0.6387 FESTEN VEREINBARUNG 0.0365
-0.6387 FESTGELEGT </s> 2.5164
-0.8008 FIGUR </s> 2.4271
-1.3377 FIGUR AN -0.0478
-1.3377 FIGUR DIE -0.0759
-1.3377 FIGUR RECHTS -0.0174
-0.6387 FINANZAMT KEINE -0.0599
-0.6387 FINDET ZWISCHEN 0.4204
-0.6387 FIRMEN HABEN -0.0238
-0.6387 FIXIERT </s> 2.5164
-0.6387 FLäCHENTARIFVERTRAG INNERHALB -0.0422
-0.4028 FORDERUNG GEHöRT 0.0524
-0.6387 FORDERUNGSRECHTE WERDEN -0.0733
-0.6387 FORMVORSCHRIFTEN DIENEN 0.0365
-0.6387 FORT </s> 2.5164
-0.9398 FORTSCHRITT </s> 2.5164
-0.9398 FORTSCHRITT ERMöGLICHT 0.0365
-0.6387 FRAGESTELLUNGEN RESULTIEREN 0.0365
-0.6387 FRAKTION </s> 2.5164
-0.6387 FRANKREICH WURDE -0.0496
-0.6387 FRANZöSISCHEN KANADIERN 0.0365
-0.9398 FREI </s> 2.5164
-0.9398 FREI BLEIBT 0.0365
-0.6387 FREIES FUNKNETZ 0.0365
-0.6387 FREIHEIT SEHR -0.0623
-0.6387 FREIHEITSSTRAFE </s> 2.5164
-0.6387 FREUND VON -0.0733
-0.6387 FRüCHTE DER -0.0758
-0.6387 FUNKNETZ SOLL -0.0599
-0.6387 FUNKTECHNIK WIRD -0.0718
-0.6387 FUNKTIONALITäT WIRD -0.0593
-1.2408 FUß BIS -0.0238
-0.7039 FUß DES -0.1238
-1.2408 FUß PACKEN -0.0238
-0.0580 FüGE ES -0.0306
-0.6387 FüNF BAUSTEINEN -0.0238
-1.5930 FüR ALLE 0.0365
-1.0561 FüR BIT -0.0705
-0.6435 FüR DIE -0.0714
-1.5930 FüR EINWANDERER 0.0365
-1.5930 FüR TRANSPORTRäDER 0.0365
-1.5930 FüR WIE -0.0684
-0.1664 GAB ES -0.0732
-1.5930 GANZ BESTIMMTE 0.0365
-1.5930 GANZ HERVORRAGENDES 0.0365
-1.0561 GANZ LINKS -0.0699
-1.5930 GANZ NACH -0.0609
-1.0561 GANZ OBEN 0.0238
-1.5930 GANZ RECHTS -0.0174
-1.5930 GANZ UNTEN -0.0533
-0.6387 GEBIET DER -0.0758
-0.6387 GEBILDE DEN -0.0733
-0.6387 GEBRAUCH NACHLäSST 0.0365
-0.4028 GEBUNDEN </s> 2.4271
-0.6387 GEDREHT </s> 2.5164
-0.6387 GEFäLSCHTE ANTWORTEN 0.0365
-0.6387 GEGENSATZ ZUR -0.0238
-0.9398 GEGENSTAND BEFESTIGEN 0.0365
-0.9398 GEGENSTAND HAT -0.0370
-0.6387 GEGENSäTZE WERDEN -0.0733
-0.6387 GEGENWäRTIGEN ZEITPUNKT 0.0365
-0.4674 GEGENüBER DEM -0.0961
-1.4169 GEGENüBER EINER -0.0411
-0.8800 GEGENüBER SEINEN 0.0524
-0.6387 GEHALTEN WERDEN -0.0733
-0.6387 GEHEIM GEHALTEN 0.0365
-0.6387 GEHEIME NACHRICHT 0.0365
-1.2408 GEHEIMTEXTS AUSGETAUSCHT 0.0365
-0.2913 GEHEIMTEXTS SOLL -0.9724
-1.1159 GEHT NICHT -0.0721
-0.5789 GEHT UM -0.0850
-0.4028 GEHöRT AUSSCHLIEßLICH -0.0914
-0.6387 GEKAUFTEN SACHE -0.0238
-0.6387 GEKOMMEN </s> 2.5164
-0.6387 GELD ERHALTEN 0.0365
-0.6387 GELERNT HABE -0.0238
-0.6387 GELTEND GEMACHT 0.0365
-0.6387 GELTENDMACHEN </s> 2.5164
-0.6387 GEMACHT </s> 2.5164
-1.6387 GENAU DORT -0.0422
-1.6387 GENAU EIN -0.0743
-1.6387 GENAU ES -0.0726
-0.6893 GENAU IN 0.1497
-1.6387 GENAU LINKS -0.0734
-1.6387 GENAU NACH -0.0609
-1.6387 GENAU ZWISCHEN 0.4204
-1.6387 GENAU üBERPRüFT 0.0365
-0.6387 GENAUIGKEIT </s> 2.5164
-0.6387 GENERIERT </s> 2.5164
-0.6387 GENIEßEN KONNTE 0.0365
-0.4028 GEREGELT </s> 2.4271
-0.6387 GERINGE SENDELEISTUNG 0.0365
-0.6387 GERINGERER ENERGIEVERBRAUCH 0.0365
-0.6387 GESAGT LINKS -0.0734
-0.6387 GESCHAFFEN WERDEN 0.2564
-0.9398 GESCHICHTE </s> 2.5164
-0.9398 GESCHICHTE DER -0.0758
-0.6387 GESCHWINDIGKEIT DURCHGEFüHRT -0.0238
-0.6387 GESCHäDIGTE IST -0.0748
-0.6387 GESENKT </s> 2.5164
-0.6387 GESETZ BISHER -0.0422
-0.6387 GESETZBLATT VERKüNDET 0.0365
-0.6387 GESETZLICHE FORMVORSCHRIFTEN 0.0365
-0.6387 GESETZLICHEN HAFTUNGSBESCHRäNKUNGEN 0.0365
-0.6387 GESPIEGELTE C 0.0365
-0.6387 GESTELLT </s> 2.5164
-0.6387 GETAN HAT -0.0370
-0.6387 GETRIEBENABE KANN -0.0642
-0.6387 GEWINNE DANN -0.0684
-0.6387 GEWINNEN UND -0.0752
-0.6387 GEWORDEN </s> 2.5164
-0.6387 GEZäHLT AN -0.0478
-0.3882 GIBT ES -0.0176
-1.3377 GIBT IM -0.0709
-1.3377 GIBT RECHTSGESCHäFTLICHE 0.0365
-0.8008 GILT ALS -0.0914
-1.3377 GILT DER -0.0758
-1.3377 GILT IM -0.0709
-1.3377 GILT INSBESONDERE 0.0365
-0.6387 GLAUBST DU -0.0599
-0.4028 GLEICH SIND 0.2140
-0.6387 GLEICHEN BUCHSTABEN -0.0564
-0.6387 GLEICHLANG SIND 0.3034
-0.7039 GLäUBIGER </s> 2.4271
-1.2408 GLäUBIGER AUSSCHLIEßLICH -0.0564
-1.2408 GLäUBIGER ZU -0.0642
-0.6387 GNUBBEL DIE -0.0734
-0.6387 GNUBBELN DEN -0.0733
-0.6387 GOLDKLAUSEL IST -0.0583
-0.4028 GRAD NACH 0.1947
-0.6387 GRAFISCHE SCHNITTSTELLEN 0.0365
-0.6387 GRAFISCHEN OBERFLäCHE 0.0365
-0.9398 GRENZT DIREKT -0.0238
-0.9398 GRENZT ERSTMAL 0.0365
-0.9398 GRUND KANN -0.0642
-0.9398 GRUND WARUM 0.0365
-0.9398 GRUNDRECHTE BESCHRäNKT -0.0238
-0.9398 GRUNDRECHTE DES -0.0723
-0.6387 GRUNDRECHTSINHALT WURDE -0.0496
-0.6387 GRUNDRECHTSVERWIRKUNG IST -0.0201
-0.6387 GRUNDSTüCKS ALS -0.0564
-0.6387 GRUNDSäTZLICH AUF -0.0706
-0.6387 GRößEN UND -0.0752
-1.1159 GRößER </s> 2.5164
-1.1159 GRößER DIE -0.0734
-1.1159 GRößER IST -0.0201
-0.6387 GRößERE BLöCKE 0.0365
-0.6387 GRüNEN KäSTCHEN -0.0564
-0.6387 GUTEN FREUND 0.0365
-0.9398 HABE </s> 2.5164
-0.9398 HABE DICH -0.0238
-0.9398 HABEN </s> 2.5164
-0.9398 HABEN ES -0.0756
-0.6387 HAFTUNG UNTERSCHIEDLICH 0.0365
-0.6387 HAFTUNGSBESCHRäNKUNGEN GEKOMMEN 0.0365
-0.6387 HALS DES -0.0345
-1.1159 HALT GENAU -0.0667
-1.1159 HALT KEINE -0.0599
-1.1159 HALT NACH -0.0723
-1.1159 HANDELT ES -0.0726
-0.5789 HANDELT SICH -0.0382
-0.6387 HAST DU -0.0599
-1.0569 HAT </s> 2.2952
-1.7849 HAT DEN -0.0733
-0.8354 HAT DER -0.1240
-1.7849 HAT DIE -0.0759
-1.7849 HAT EINE -0.0701
-1.2479 HAT EINEN -0.0914
-1.7849 HAT RECHTE 0.0043
-1.7849 HAT UND -0.0752
-0.6387 HAUPTSäCHLICH AUS -0.0697
-0.6387 HAUS </s> 2.5164
-0.6387 HERAUS </s> 2.5164
-0.6387 HERAUSGABE DER -0.0758
-0.6387 HERAUSGEFUNDEN WERDEN 0.2564
-0.6387 HERVORRAGENDES KOSTENLOSES 0.0365
-0.6387 HEUTIGEN ZEIT -0.0564
-0.6387 HIERBEI WERDEN -0.0733
-0.6387 HIERDURCH WERDEN -0.0733
-0.6387 HIERFüR GIBT 0.1516
-0.6387 HIERZU BEDARF 0.0365
-0.6387 HILFSWISSENSCHAFT VERWENDET -0.0238
-0.6387 HIN DASS -0.0721
-0.6387 HINREICHEND GELTENDMACHEN 0.0365
-0.9398 HINTER DEM -0.0727
-0.9398 HINTER EINEM -0.0642
-0.6387 HINTERRADGABEL DEN -0.0733
-0.6387 HOHEITSAKT HAT -0.0697
-0.6387 HOLZ HANDELT -0.0422
-0.0669 HORIZONTAL </s> 1.6931
-0.6387 HäLTST DU -0.0599
-0.6387 HäTTE VERDACHTSANZEIGE 0.0365
-1.2408 HäUFIGKEIT DER -0.0758
-0.2913 HäUFIGKEIT VON -1.1205
-0.6387 HöCHSTE PRIORITäT 0.0365
-0.6387 HöCHSTSTRAFE IST -0.0201
-0.6387 HöCKERS DES -0.0723
-0.6387 HöHERE BITRATEN 0.0365
-0.6387 HöHEREN GESCHWINDIGKEIT 0.0365
-0.6387 HöHERER ÜBERTRAGUNGSRATEN 0.0365
-0.6387 HüLLE WIRD -0.0718
-0.6387 HüTER DER -0.0758
-0.6387 I </s> 2.5164
-1.7179 ICH DAS 0.0842
-1.7179 ICH DICH -0.0238
-1.7179 ICH HABE -0.0238
-1.7179 ICH IM -0.0709
-1.7179 ICH MIR -0.0238
-1.7179 ICH NEHM 0.0365
-0.9900 ICH NEHME 0.9060
-1.7179 ICH SPIEGELE 0.8774
-1.7179 ICH WERDE 0.0365
-0.6387 IHN VERTIKAL 0.9646
-1.8692 IM ANGRENZENDEN 0.0365
-1.3323 IM BUNDESVERFASSUNGSGERICHTSGESETZ 0.0365
-1.8692 IM DEUTSCHEN -0.0238
-1.8692 IM EIGENTLICHEN 0.0365
-1.8692 IM ENGEREN 0.0365
-1.8692 IM GEGENSATZ 0.0365
-1.8692 IM GESETZBLATT 0.0365
-1.8692 IM HALS 0.0365
-1.8692 IM JAHR 0.0365
-1.8692 IM KONKRETEN 0.0365
-1.8692 IM LOTTO 0.0365
-1.8692 IM MAINBOARD 0.0365
-1.8692 IM MIETRECHT 0.0365
-1.8692 IM RECHTEN -0.0422
-1.8692 IM STRAFGESETZBUCH 0.0365
-1.8692 IM VORDERBEIN 0.0365
-1.1159 IMMER GRößER -0.0422
-1.1159 IMMER HöHERE 0.0365
-1.1159 IMMER NUR -0.0564
-2.3377 IN </s> 2.5164
-2.3377 IN AXIOME 0.0365
-1.6097 IN DAS -0.1080
-1.8008 IN DEM -0.0684
-0.8539 IN DEN -0.0599
-0.6198 IN DER -0.1013
-1.3882 IN DEUTSCHLAND -0.0063
-0.6198 IN DIE -0.2432
-1.8008 IN DIESE -0.0422
-1.8008 IN DIESEM -0.0914
-2.3377 IN EIN -0.0743
-2.3377 IN FRANKREICH 0.0365
-2.3377 IN WELCHE -0.0238
-2.3377 IN ZWEI -0.0697
-0.4028 INDIREKTEN WETTBEWERBSVORTEIL 0.0524
-0.6387 INGENIEURWISSENSCHAFT </s> 2.5164
-1.1159 INNERHALB DER -0.0758
-1.1159 INNERHALB DERER 0.0365
-1.1159 INNERHALB EINES -0.0564
-0.6387 INS IN -0.0113
-0.6387 INSBESONDERE IM -0.0709
-0.6387 INTERESSEN </s> 2.5164
-0.6387 INTERNATIONALER FORTSCHRITT -0.0238
-0.6387 INTERNETNUTZER BENöTIGT -0.0238
-0.3882 IP ADRESSE 0.1293
-0.8008 IP ADRESSEN -0.0238
-0.6387 IRGENDEINEN RAND -0.0422
-0.6387 IRGENDWAS ANDERES 0.0365
-0.7360 IST </s> 1.6390
-2.3289 IST AUF -0.0706
-2.3289 IST BERECHTIGT 0.0365
-2.3289 IST BESTANDTEIL 0.0365
-2.3289 IST BLOß 0.0365
-2.3289 IST DADURCH -0.0238
-2.3289 IST DANN -0.0684
-1.7920 IST DAS -0.0740
-1.7920 IST DER -0.0722
-2.3289 IST DESTO 0.0365
-0.9120 IST DIE -0.0629
-2.3289 IST DIEJENIGE 0.0365
-1.7920 IST EIN -0.0717
-1.3795 IST EINE -0.0564
-1.7920 IST ES -0.0744
-2.3289 IST FüR -0.0656
-2.3289 IST HüTER 0.0365
-1.7920 IST IM -0.1455
-2.3289 IST JA -0.0422
-2.3289 IST KEINE -0.0599
-1.3795 IST NOCH -0.9941
-2.3289 IST SCHON 0.0365
-2.3289 IST VIELES 0.0365
-2.3289 IST WENN -0.0623
-1.7920 IST WICHTIG 0.0365
-2.3289 IST ZU -0.0642
-1.1159 JA </s> 2.5164
-1.1159 JA EGAL 0.0365
-1.1159 JA WIE -0.0684
-0.6387 JAHR 1998 -0.0238
-0.6387 JAHRES GELTEND 0.0365
-0.9398 JE GRößER -0.0422
-0.9398 JE LäNGER 0.0365
-0.9398 JEDER BUCHSTABE 0.0365
-0.9398 JEDER DIE -0.0759
-0.6387 JEDERMANN KANN -0.0642
-0.6387 JEDOCH NICHT -0.0602
-1.2408 JETZT SUCHE 0.0365
-0.7039 JETZT SUCHEN 0.0524
-1.2408 JETZT VERSTEHEN 0.0365
-0.6387 JEWEILIGE MATHEMATISCHE -0.0238
-0.6387 JEWEILIGEN SENDERS 0.0365
-0.6387 JEWEILS BEREITS -0.0422
-0.6387 JUNI 2002 0.0365
-0.5789 KAMELS </s> 2.4271
-1.1159 KAMELS LIEGT -0.0422
-0.6387 KANADIERN </s> 2.5164
-1.5418 KANN AUSGEGANGEN 0.0365
-1.5418 KANN EIN -0.0743
-1.5418 KANN ERBRACHT 0.0365
-1.5418 KANN ES -0.0726
-1.5418 KANN FüR -0.0656
-1.5418 KANN IMMER -0.0422
-1.5418 KANN OPTIONAL 0.0365
-1.5418 KANN VERFASSUNGSBESCHWERDE -0.0238
-0.6387 KANNST DU -0.0599
-0.6387 KANTE ODER -0.0623
-0.6387 KAPITALISMUS WAR -0.0599
-0.6387 KASERNEN UMGEBAUT 0.0365
-0.6387 KAUFE ICH -0.0684
-1.4169 KEINE KANTE 0.0365
-1.4169 KEINE KEINE -0.0599
-1.4169 KEINE KENNTNIS 0.0365
-1.4169 KEINE NATURWISSENSCHAFT 0.0365
-1.4169 KEINE STAATSGEWALT 0.0365
-1.4169 KEINE SUPERREICHEN 0.0365
-0.6387 KEINEN WEITEREN 0.0365
-0.6387 KENNEN GELERNT 0.0365
-0.6387 KENNTNIS VOM -0.0564
-0.6387 KETTENBLATT AN -0.0716
-0.6387 KLARTEXT KOMBINIERT 0.0365
-0.6387 KLEINEM QUADRAT -0.0623
-0.9398 KLEINES QUADRAT -0.0623
-0.9398 KLEINES U -0.0238
-0.6387 KOMBINATION VON -0.0644
-0.6387 KOMBINIERT </s> 2.5164
-0.6387 KOMMERZIELLEN INTERESSEN 0.0365
-0.6387 KOMMT GENAU -0.0667
-0.6387 KOMPLETT AUSGEFüLLT 0.0365
-0.6387 KONKRETEN FALL -0.0422
-0.6387 KONKURRENTEN BENACHTEILIGT -0.0422
-0.6387 KONNTE GAB 0.4204
-0.6387 KONSTRUKTION DES -0.0723
-0.4028 KONTRAHIERUNGSZWANG </s> 2.4271
-0.6387 KOPF </s> 2.5164
-0.6387 KOSTENLOSES PROGRAMM 0.1418
-0.6387 KOTTENFORST GAB 0.4204
-0.6387 KREDITINSTITUT HäTTE 0.0365
-0.6387 KREUZ </s> 2.5164
-0.6387 KREUZES </s> 2.5164
-0.9398 KRYPTOGRAFISCHE FUNKTIONALITäT 0.0365
-0.9398 KRYPTOGRAFISCHE SICHERHEIT -0.0238
-0.6387 KURZEN STRECKEN 0.0365
-1.3377 KäSTCHEN </s> 2.5164
-1.3377 KäSTCHEN ABSCHLIEßT 0.0365
-1.3377 KäSTCHEN ABSTAND -0.0238
-1.3377 KäSTCHEN ANLIEGT -0.0238
-1.3377 KäSTCHEN EIN -0.0173
-0.5789 KäUFER GEGENüBER 0.0149
-1.1159 KäUFER VERLANGT 0.0365
-1.1018 KöNNEN </s> 2.4271
-0.6893 KöNNEN AUCH -0.0063
-1.6387 KöNNEN AUS -0.0697
-1.6387 KöNNEN DURCH -0.0564
-1.6387 KöNNEN ENTWEDER 0.0365
-1.6387 KöNNEN GESCHAFFEN 0.0365
-1.6387 KöNNEN UNTERSCHIEDLICHE -0.0238
-0.6387 KöNNTE DEN -0.0733
-0.6387 KüNDIGUNGSRECHTE ABGELEITET 0.0365
-0.6387 KüRZLICH ERHöHT 0.0365
-0.8008 L </s> 2.4271
-1.3377 L IN -0.0699
-1.3377 L NEIN -0.0422
-1.3377 L SONDERN -0.0511
-0.6387 LAN VERGEGENWäRTIGEN 0.0365
-0.6387 LAND IST -0.0748
-0.4028 LANDESEBENE STATTFINDEN 0.0524
-0.6387 LANGE TECHNISCHE -0.0238
-0.6387 LANGEN ZEIT -0.0564
-0.6387 LEBEN WIRD -0.0718
-0.6387 LEBENSLANGE FREIHEITSSTRAFE 0.0365
-0.6387 LEBTEN DORT -0.0422
-0.6387 LEDIGLICH ZWEI -0.0697
-0.6387 LEEREN KäSTCHEN -0.0564
-0.0669 LEGE ES -0.0510
-0.6387 LIEGEN GLAUBST 0.0365
-1.1159 LIEGT </s> 2.5164
-0.5789 LIEGT NICHT -0.0552
-0.6387 LINKE OBERE -0.0020
-1.5418 LINKEN MITTE -0.0677
-1.5418 LINKEN RAND -0.0422
-0.8139 LINKEN SEITE 0.1155
-1.5418 LINKEN SPALTE -0.0238
-1.5418 LINKEN UNTEREN -0.0238
-0.3485 LINKS </s> 1.4793
-2.1011 LINKS AM -0.0422
-2.1011 LINKS AUS -0.0697
-2.1011 LINKS DREHST 0.0365
-2.1011 LINKS GENAU -0.0667
-2.1011 LINKS IN 0.0423
-2.1011 LINKS IST 0.0113
-2.1011 LINKS OBEN -0.0677
-1.5642 LINKS OBERHALB 0.0365
-2.1011 LINKS REINSCHIEBEN 0.0365
-2.1011 LINKS SO 0.2822
-2.1011 LINKS UMGEKIPPTES 0.0365
-2.1011 LINKS UND -0.0752
-2.1011 LINKS UNTEN -0.0132
-2.1011 LINKS VOM -0.0564
-2.1011 LINKS WEG 0.0365
-0.9398 LOCH </s> 2.5164
-0.9398 LOCH IST 0.0113
-0.6387 LOGISCHER BEWEIS 0.0365
-0.6387 LOHNEN </s> 2.5164
-0.6387 LOTTO GEWINNE 0.0365
-0.6387 LäNGER DIE -0.0759
-0.6387 LäNGEREM GEBRAUCH 0.0365
-0.6387 LäNGERER ZEIT -0.0564
-0.9398 LäSST NACH -0.0723
-0.9398 LäSST SICH -0.0684
-0.6387 LüCKE </s> 2.5164
-0.6387 M </s> 2.5164
-0.6387 MAINBOARD IST -0.0583
-0.6387 MAKIERT </s> 2.5164
-1.5418 MAN </s> 2.5164
-1.5418 MAN MUSS -0.0411
-1.5418 MAN NUR -0.0564
-1.5418 MAN SOLL -0.0599
-1.0049 MAN SPRICHT 0.0524
-1.5418 MAN UNTERSCHEIDET 0.0365
-1.5418 MAN VERSUCHTE 0.0365
-0.7039 MATHEMATIK IST -0.0727
-1.2408 MATHEMATIK VOLLSTäNDIG -0.0238
-1.2408 MATHEMATIK WIRD -0.0593
-0.9398 MATHEMATISCHE ERKENNTNIS 0.0365
-0.9398 MATHEMATISCHE FRAGESTELLUNGEN 0.0365
-0.9398 MEHR </s> 2.5164
-0.9398 MEHR ERMITTELN 0.0365
-0.6387 MEHRERE TEILNEHMER 0.0365
-0.6387 MHM JETZT -0.0511
-0.9398 MICH </s> 2.5164
-0.9398 MICH AN -0.0716
-0.6387 MIETER HAT -0.0697
-0.6387 MIETRECHT ARBEITSRECHT 0.0365
-0.6387 MIETVERHäLTNIS BEENDET 0.0365
-0.6387 MIETVERTRAG </s> 2.5164
-0.6387 MILLIONEN ADRESSEN -0.0511
-0.6387 MINDESTLOHN KüRZLICH 0.0365
-0.9398 MIR </s> 2.5164
-0.9398 MIR EIN -0.0743
-1.8692 MIT ANSPRüCHEN 0.0365
-1.1412 MIT DEM -0.0599
-1.8692 MIT DEN -0.0733
-1.3323 MIT DER -0.0722
-1.8692 MIT DIESER -0.0238
-1.3323 MIT EINEM -0.0511
-1.8692 MIT EINER -0.0667
-1.8692 MIT EINVERSTäNDNIS 0.0365
-1.8692 MIT VIER -0.0422
-1.8692 MIT WORTEN 0.0365
-1.8692 MIT ZAHLEN 0.0365
-1.8692 MIT ZWEI -0.0697
-0.4028 MITBEWERBERN DIE -0.1628
-0.6387 MITGLIEDER DER -0.0758
-0.7307 MITTE </s> 1.4399
-1.6801 MITTE AN -0.0584
-1.6801 MITTE BEFINDET 0.2341
-1.6801 MITTE DES -0.0609
-1.6801 MITTE IST 0.0113
-1.6801 MITTE LINKS -0.0734
-1.6801 MITTE MAKIERT 0.0365
-1.6801 MITTE UMRAHMT 0.0365
-1.6801 MITTE VON -0.0733
-0.6387 MITTELLINIE </s> 2.5164
-0.6387 MITTLEREN QUADRAT -0.0248
-0.6387 MITTLERWEILE IST -0.0748
-0.4028 MODERNE TECHNIK 0.0524
-0.6387 MONARCHIE </s> 2.5164
-0.4028 MONOPOLE </s> 2.4271
-0.6387 MUNITIONSLAGER </s> 2.5164
-1.6387 MUSS </s> 2.5164
-1.6387 MUSS DIE -0.0759
-1.6387 MUSS EBENFALLS 0.0365
-1.6387 MUSS EINE -0.0701
-1.6387 MUSS ENTSCHEIDEN -0.0422
-1.6387 MUSS ES -0.0756
-1.6387 MUSS HERAUSGEFUNDEN 0.0365
-1.1018 MUSS SICH -0.0599
-1.6387 MUSS UM 0.2242
-0.6387 MöCHTE </s> 2.5164
-0.6387 MöGLICHERWEISE HINTER -0.0238
-0.6387 MüNDLICH EINGEREICHT 0.0365
-0.9398 MüSSEN </s> 2.5164
-0.9398 MüSSEN GENAU 0.0225
-1.9812 NACH </s> 2.5164
-1.4442 NACH DEUTSCHEM 0.0524
-1.9812 NACH EINER -0.0667
-0.3882 NACH LINKS -0.0310
-1.9812 NACH LäNGEREM 0.0365
-1.9812 NACH LäNGERER 0.0365
-1.9812 NACH OBEN -0.0677
-1.2532 NACH RECHTS 0.0903
-1.4442 NACH UNTEN -0.0633
-0.4028 NACHEINANDER VERSCHLüSSELT 0.3311
-0.6387 NACHKRIEGSZEIT WURDEN 0.0365
-0.6387 NACHLASSEN </s> 2.5164
-0.6387 NACHLäSST </s> 2.5164
-0.6387 NACHRICHT IST -0.0748
-0.9398 NACHRICHTEN UND -0.0711
-0.9398 NACHRICHTEN VERSCHLüSSELN 0.0365
-0.6387 NACHWACHSENDEN ROHSTOFF 0.0365
-0.6387 NACHWEIS DER -0.0758
-0.6387 NACHWIRKUNGSZEIT FORT 0.0365
-0.6387 NATURWISSENSCHAFT IM -0.0709
-0.6387 NATURWISSENSCHAFTLERN ALS -0.0564
-0.6387 NATURWISSENSCHAFTLICHE ERKENNTNISSE 0.0365
-0.6387 NEE DAS -0.0451
-0.6387 NEHM DAS 0.0842
-1.8429 NEHME </s> 2.5164
-0.0280 NEHME DAS -1.0898
-0.6387 NEHMEN SIE -0.0248
-0.5789 NEIN </s> 2.4271
-1.1159 NEIN NICHT -0.0602
-0.6387 NETZWERKEN ZUR -0.0238
-0.6387 NETZWERKKARTE EINGEBAUT 0.0365
-0.6387 NETZWERKS SENDEN 0.0365
-0.9398 NEUE EXPERIMENTE 0.0365
-0.9398 NEUE VERTRAGSTYPEN 0.0365
-0.7039 NEUN ACHT -0.0332
-1.2408 NEUN NEUN 0.0189
-1.2408 NEUN NULL -0.0154
-0.4028 NEUNZIG GRAD 0.0524
-1.4838 NEUNZIG_GRAD LINKS 0.1814
-0.1461 NEUNZIG_GRAD NACH 0.0277
-1.4838 NEUNZIG_GRAD NEIN 0.0561
-1.4240 NICHT </s> 2.4271
-1.9610 NICHT AN -0.0716
-1.9610 NICHT DARUM 0.0365
-1.4240 NICHT DAS -0.0627
-1.9610 NICHT EXAKT 0.0365
-1.9610 NICHT GEHEIM 0.0365
-1.9610 NICHT IN -0.0748
-1.9610 NICHT KOMMERZIELLEN 0.0365
-1.4240 NICHT MEHR 0.0365
-1.9610 NICHT MIT -0.0709
-1.4240 NICHT NUR -0.0350
-1.9610 NICHT SO -0.0706
-1.9610 NICHT UM 0.0043
-1.9610 NICHT VERFüGBAR 0.4204
-1.9610 NICHT VERWENDET -0.0238
-1.9610 NICHT VOR -0.0238
-1.9610 NICHT VORGESEHENE 0.0365
-1.5930 NIMM </s> 2.5164
-0.1091 NIMM DAS -0.0221
-1.5930 NIMM DEN -0.0733
-0.5128 NOCH NICHT -0.0925
-0.9398 NORM </s> 2.5164
-0.9398 NORM KANN -0.0642
-0.6387 NORMADRESSAT WIRD -0.0718
-0.6387 NORWEGEN IST -0.0583
-0.9398 NOTEBOOKS STATT 0.0365
-0.9398 NOTEBOOKS ZU -0.0642
-0.6387 NOTWENDIG </s> 2.5164
-0.8800 NULL </s> 2.4271
-0.8800 NULL DREI -0.0422
-1.4169 NULL SECHS 0.0561
-1.4169 NULL SIEBEN 0.0189
-1.3377 NUR DAS -0.0754
-1.3377 NUR DER -0.0758
-1.3377 NUR EINE -0.0701
-1.3377 NUR IN 0.0423
-1.3377 NUR VON -0.0644
-0.7307 OBEN </s> 1.4399
-1.6801 OBEN DRAUF 0.0365
-1.6801 OBEN EINFACH 0.1418
-1.6801 OBEN IN 0.0423
-1.1432 OBEN IST 0.0200
-1.6801 OBEN LINKS -0.0734
-1.6801 OBEN RAUS 0.0365
-1.6801 OBEN RECHTS -0.0706
-1.3377 OBERE ECKE -0.0667
-1.3377 OBERE RECHTE -0.0472
-1.3377 OBERE REIHE -0.0238
-0.8008 OBERE TEIL -0.0466
-0.9398 OBEREN DREI -0.0599
-0.9398 OBEREN NACH 0.1516
-0.6387 OBERFLäCHE </s> 2.5164
-0.9398 OBERHALB DES -0.0723
-0.9398 OBERHALB VON -0.0644
-0.9398 OBERSEITE </s> 2.5164
-0.9398 OBERSEITE MIT -0.0443
-0.6387 OBERSTEN VERFASSUNGSORGANE 0.0365
-0.6387 OBJEKT AUF 0.3491
-0.6387 OBWOHL PHYSIKALISCHE 0.0365
-1.4838 ODER EIN -0.0743
-1.4838 ODER EINE -0.0701
-1.4838 ODER IRGENDWAS 0.0365
-1.4838 ODER MüNDLICH 0.0365
-1.4838 ODER NACH -0.0723
-1.4838 ODER SO -0.0706
-1.4838 ODER VIER -0.0422
-0.6387 OHNE VERSCHULDEN 0.0365
-0.6387 OPTIONAL </s> 2.5164
-0.6387 ORGANSTREIT IST -0.0698
-0.4028 ORGANSTREITVERFAHREN KöNNEN -0.0668
-0.6387 PACK ES -0.0726
-0.9398 PACKEN </s> 2.5164
-0.9398 PACKEN SIE -0.0623
-0.6387 PARABOLANTENNE WIRD -0.0718
-0.6387 PARABOLANTENNEN KöNNEN -0.0667
-0.6387 PARLAMENTARISCHE MONARCHIE 0.0365
-0.6387 PARTEIEN NOTWENDIG 0.0365
-0.9398 PASST </s> 2.5164
-0.9398 PASST GENAU -0.0667
-0.6387 PEREMPTORISCHE EINREDE -0.0238
-0.9398 PERMANENT </s> 2.5164
-0.9398 PERMANENT SIND 0.3034
-0.9398 PERSON </s> 2.5164
-0.9398 PERSON ABZUGEBEN 0.0365
-0.6387 PERSöNLICHE ENTSCHEIDUNGSFREIHEIT 0.0365
-0.5789 PFLICHTEN </s> 2.4271
-1.1159 PFLICHTEN AUS -0.0370
-0.6387 PHYSIK UND -0.0752
-0.6387 PHYSIKALISCHE ADRESSEN -0.0511
-0.6387 POLITISCHE TOLERANZ 0.0365
-0.6387 POLIZEI ANGERUFEN 0.0365
-0.6387 PORT KANN -0.0642
-0.6387 POSITION FIXIERT 0.0365
-0.6387 PREISWERTE UND -0.0752
-0.6387 PRIORITäT </s> 2.5164
-0.6387 PRIVATEN NETZWERKEN 0.0365
-0.6387 PRIVATPERSONEN AUFGEBAUT 0.0365
-0.6387 PRO ZEITEINHEIT 0.0365
-0.4028 PROGRAMM </s> 2.4271
-0.6387 PROGRAMMFEHLER IST -0.0748
-0.6387 PROZESSFäHIGKEIT IST -0.0698
-0.6387 QUADER EIN -0.0679
-1.4838 QUADRAT DRAN 0.0365
-0.9469 QUADRAT EIN -0.0653
-1.4838 QUADRAT HAT -0.0370
-1.4838 QUADRAT MIT -0.0561
-1.4838 QUADRAT OBEN -0.0677
-1.4838 QUADRAT SO 0.2822
-0.6387 QUADRATE TANGIERT 0.0365
-0.6387 QUADRATES </s> 2.5164
-0.6387 RAN AN -0.0274
-1.1159 RAND </s> 2.5164
-1.1159 RAND AN -0.0716
-1.1159 RAND DES -0.0723
-0.6387 RAUS JA -0.0422
-0.6387 RECHNEN MIT -0.0709
-1.7179 RECHTE ALSO -0.0511
-1.7179 RECHTE DRITTE -0.0238
-1.1810 RECHTE ECKE 0.3468
-1.7179 RECHTE HINREICHEND 0.0365
-1.7179 RECHTE OBERE -0.0564
-1.7179 RECHTE SEITE -0.0599
-0.7684 RECHTE UND -1.1384
-1.7179 RECHTE UNTERE 0.0365
-1.7179 RECHTE WERDEN -0.0733
-0.4028 RECHTECKS EIN -0.0070
-1.1159 RECHTEN IM -0.0709
-1.1159 RECHTEN TEIL -0.0735
-1.1159 RECHTEN WINKEL 0.0365
-0.8934 RECHTS </s> 1.4399
-1.8429 RECHTS AN -0.0274
-1.8429 RECHTS GEDREHT 0.0365
-1.8429 RECHTS IN -0.0660
-1.8429 RECHTS INS 0.0365
-0.8934 RECHTS OBEN -0.0048
-1.3059 RECHTS UND -0.1511
-0.8934 RECHTS UNTEN -0.0250
-1.8429 RECHTS VON -0.0439
-0.6387 RECHTSEITIG </s> 2.5164
-0.6387 RECHTSGESCHäFTLICHE UND -0.0752
-0.6387 RECHTSGESCHäFTSäHNLICHE SCHULDVERHäLTNISSE 0.0365
-0.6387 RECHTSGUT VERLETZT 0.0365
-0.6387 RECHTSMITTEL WURDE -0.0691
-0.6387 RECHTSNORM WURDE -0.0691
-0.6387 REDUZIERT </s> 2.5164
-0.6387 REICHT UND -0.0711
-0.9398 REIHE DA 0.1418
-0.9398 REIHE KOMPLETT 0.0365
-0.5789 REIN </s> 2.4271
-1.1159 REIN IN -0.0113
-0.6387 REINSCHIEBEN IN -0.0699
-0.6387 RELATIV IN 0.0423
-0.6387 RELATIVITäTSGRUNDSATZ GIBT 0.1516
-0.6387 RESSOURCEN EINES -0.0564
-0.6387 RESULTIEREN AUS -0.0370
-0.6387 RHEINISCHE KAPITALISMUS 0.0365
-0.6387 RICHTUNG </s> 2.5164
-0.6387 RIEGEL UND -0.0752
-0.6387 ROHSTOFF </s> 2.5164
-1.3377 ROUTER AUFGESPIELT 0.0365
-1.3377 ROUTER BEFINDET 0.2341
-1.3377 ROUTER BESITZT 0.0365
-1.3377 ROUTER MUSS -0.0667
-1.3377 ROUTER ZU -0.0642
-0.6387 RUNDFUNKPROGRAMME AUSGESTRAHLT 0.0365
-0.9398 RüSSEL BEFINDET -0.0511
-0.9398 RüSSEL EINGEPASST 0.0365
-0.4028 S </s> 2.4271
-0.9398 SACHE </s> 2.5164
-0.9398 SACHE DEM -0.0727
-0.6387 SACHENRECHT </s> 2.5164
-0.6387 SCHADEN LIEGT 0.0561
-0.6387 SCHALTROHR AUS -0.0370
-0.6387 SCHENKEL GLEICHLANG 0.0365
-0.6387 SCHIEBE ES -0.0726
-0.6387 SCHIEßT DANN -0.0684
-0.6387 SCHLüSSELSTROM WIRD -0.0593
-0.6387 SCHMERZ WIRD -0.0593
-0.6387 SCHNAUZE UND -0.0391
-0.6387 SCHNELLE COMPUTER -0.0422
-0.6387 SCHNITTSTELLEN SIND -0.0684
-0.6387 SCHON EIN -0.0743
-0.6387 SCHRIFTLICH ODER -0.0623
-0.9398 SCHULDVERHäLTNIS IM -0.0709
-0.9398 SCHULDVERHäLTNIS NICHT -0.0721
-0.6387 SCHULDVERHäLTNISSE </s> 2.5164
-0.4028 SCHULDVERHäLTNISSES GEBUNDEN 0.0524
-0.6387 SCHUTZ </s> 2.5164
-0.5789 SECHS SECHS 0.1038
-1.1159 SECHS ZWEI -0.0697
-0.6387 SEHEN </s> 2.5164
-1.4838 SEHR ATTRAKTIV 0.0365
-1.4838 SEHR GEEIGNET -0.0243
-1.4838 SEHR LANGEN 0.0365
-1.4838 SEHR STARK -0.0238
-0.9469 SEHR STARKER 0.0524
-1.4838 SEHR VIEL 0.0365
-0.6387 SEI DENN 0.0365
-0.6387 SEIN </s> 2.5164
-0.6387 SEINEM ROUTER -0.0564
-0.4028 SEINEN MITBEWERBERN 0.0524
-0.4674 SEITE </s> 1.4399
-1.4169 SEITE AM -0.0422
-1.4169 SEITE EIN -0.0173
-1.4169 SEITE NEIN 0.0561
-0.6387 SENDELEISTUNG </s> 2.5164
-0.6387 SENDEN </s> 2.5164
-0.6387 SENDERS WIRD -0.0718
-0.6387 SETZ ES -0.0204
-1.3377 SETZE </s> 2.5164
-0.6097 SETZE ES -0.0565
-1.7179 SICH </s> 2.5164
-1.7179 SICH DIE -0.0759
-1.7179 SICH EINE -0.0701
-1.7179 SICH ERGEBEN 0.0365
-1.7179 SICH JEDOCH 0.0365
-1.7179 SICH LINKS 0.1814
-1.7179 SICH LOHNEN 0.0365
-1.7179 SICH MöGLICHERWEISE 0.0365
-1.7179 SICH NICHT -0.0721
-1.7179 SICH RELATIV 0.0365
-1.1810 SICH UM -0.0599
-0.9398 SICHERHEIT IST -0.0583
-0.9398 SICHERHEIT VON -0.0733
-0.6387 SICHERHEITSLüCKEN SIND -0.0684
-0.9469 SIE DAS -0.0706
-1.4838 SIE ERINNERT 0.0365
-1.4838 SIE IST -0.0748
-1.4838 SIE SO -0.0706
-1.4838 SIE UNTEN -0.0132
-1.4838 SIE äHM 0.3625
-0.7039 SIEBEN </s> 2.4271
-1.2408 SIEBEN NEUN 0.0189
-1.2408 SIEBEN ZWEI -0.0697
-0.6387 SIGNAL DEKODIEREN 0.0365
-0.6387 SIGNIEREN UND -0.0752
-0.6387 SIGNIERUNG VON -0.0733
-0.2341 SIND </s> 2.3879
-1.7179 SIND BISHER -0.0422
-1.7179 SIND DAS -0.0754
-1.7179 SIND DIE -0.0759
-1.7179 SIND ENTWICKELT -0.0238
-1.7179 SIND LEDIGLICH 0.0365
-0.6387 SINN </s> 2.5164
-0.6387 SINNE </s> 2.5164
-1.8429 SO AUSSCHAUT 0.0365
-0.2499 SO DASS -0.0223
-1.8429 SO GENAU -0.0667
-1.8429 SO HIN 0.0365
-1.3059 SO IN 0.0012
-1.8429 SO IST 0.0113
-1.8429 SO SONDERN -0.0511
-1.1159 SOFTWARE AUF -0.0706
-1.1159 SOFTWARE KANN -0.0642
-1.1159 SOFTWARE KANNST 0.0365
-0.6387 SOLDATEN VERLIEREN 0.1418
-0.4674 SOLL ANALYSIERT -0.6562
-1.4169 SOLL DAS -0.0754
-1.4169 SOLL DIE -0.0759
-1.4169 SOLL VON -0.0733
-0.6387 SOMIT EINE -0.0701
-1.2408 SONDERN AUCH -0.0511
-1.2408 SONDERN DAS -0.0754
-1.2408 SONDERN EINFACH 0.1418
-1.2408 SONDERN GENAU -0.0667
-0.6387 SOZUSAGEN </s> 2.5164
-0.9398 SPALTE SOZUSAGEN 0.0365
-0.9398 SPALTE VON -0.0644
-0.1664 SPIEGEL ES -0.0176
-0.0512 SPIEGELE ES -0.1705
-0.9398 SPIEGELN DIE -0.0759
-0.9398 SPIEGELN WIR -0.0511
-0.6387 SPIEGLE ES -0.0703
-0.4028 SPRICHT IN -0.1592
-0.6387 SPüRBAR UND -0.0752
-0.6387 STAATSGEWALT AUS -0.0697
-0.6387 STANDARD WURDE -0.0691
-0.4028 STANDORTEN IN -0.1480
-0.9398 STARK BELASTET -0.0238
-0.9398 STARK EINGESCHRäNKT 0.0365
-0.4028 STARKER ALGORITHMUS 0.0524
-0.6387 STATISCHE IP 0.1516
-0.6387 STATT </s> 2.5164
-0.4028 STATTFINDEN </s> 2.4271
-0.6387 STATTFINDET </s> 2.5164
-0.6387 STEHEN DEN -0.0733
-0.9398 STELLE ES -0.0756
-0.9398 STELLE SIE -0.0623
-0.6387 STEUERHINTERZIEHUNG </s> 2.5164
-0.6387 STILLSCHWEIGENDEN ABBEDINGUNG 0.0365
-0.6387 STRAFGESETZBUCH EINEN -0.0564
-0.6387 STRAFRAHMEN </s> 2.5164
-0.4028 STRAFRECHT </s> 2.4271
-0.4028 STRAFRICHTER ENTSCHEIDEN -0.0332
-0.6387 STRAFTAT AN -0.0716
-0.6387 STRECKEN ANGEWENDET 0.0365
-0.6387 STRENG LOGISCHER 0.0365
-0.6387 STROMVERSCHLüSSELUNG WIRD -0.0718
-0.6387 STüCK SCHIEßT 0.0365
-0.6387 STüTZT DEN -0.0733
-0.6387 SUCHE ICH -0.0684
-0.4028 SUCHEN WIR -0.0238
-0.6387 SUKZESSIVE ELEMENTE 0.0365
-0.6387 SUPERREICHEN </s> 2.5164
-0.6387 SYSTEM WURDE -0.0496
-0.6387 SYSTEMS KöNNTE 0.0365
-0.2913 T </s> 1.4399
-1.2408 T WIE 0.5252
-0.6387 TANGIERT </s> 2.5164
-0.6387 TATSACHE KANN -0.0642
-0.4028 TECHNIK IST -0.1476
-0.9398 TECHNISCHE FORTSCHRITT -0.0238
-0.9398 TECHNISCHE GESCHICHTE -0.0238
-1.3879 TEIL </s> 2.2952
-2.1159 TEIL AUF 0.3491
-1.5789 TEIL AUS 0.0069
-0.6990 TEIL DAS -0.4753
-2.1159 TEIL DASS -0.0721
-2.1159 TEIL DEN -0.0733
-2.1159 TEIL DER -0.0758
-2.1159 TEIL DES -0.0723
-2.1159 TEIL DIE -0.0759
-1.1664 TEIL GANZ -0.0820
-2.1159 TEIL GENAU 0.0225
-1.5789 TEIL UNTEN -0.0141
-2.1159 TEIL VON -0.0733
-1.5789 TEIL WAS -0.0046
-2.1159 TEIL WELCHES 0.0365
-2.1159 TEIL ZU -0.0642
-2.1159 TEIL üBER -0.0422
-0.4028 TEILE </s> 2.4271
-0.6387 TEILEN SICH -0.0684
-0.6387 TEILNEHMER TEILEN 0.0365
-0.6387 TEILNEHMERS VON -0.0439
-0.6387 TEURER GEWORDEN 0.0365
-0.4028 TEXT WIRD -0.1486
-0.6387 THOUSAND BüRGER 0.0365
-0.6387 TOLERANZ STATTFINDET 0.0365
-0.6387 TRANSPORTRäDER NICHT -0.0721
-0.6387 TWO THOUSAND 0.0365
-0.6387 TYPENZWANG GILT -0.0564
-0.6387 TäTER EIN -0.0743
-0.9398 U </s> 2.5164
-0.9398 U DRIN 0.0365
-0.7684 UM DIE -0.1274
-1.7179 UM EINE -0.0701
-1.7179 UM EINEN -0.0564
-1.7179 UM NEUNZIG 0.1418
-0.3010 UM NEUNZIG_GRAD 0.0848
-0.4028 UMFANG DER -0.1626
-0.6387 UMFELD DES -0.0723
-0.6387 UMGEBAUT </s> 2.5164
-0.9398 UMGEDREHTES </s> 2.5164
-0.9398 UMGEDREHTES Z -0.0238
-0.6387 UMGEKIPPTES T 0.2341
-0.6387 UMRAHMT WERDEN -0.0733
-0.6387 UMSCHRIEBEN </s> 2.5164
-0.6387 UM_NEUNZIG_GRAD NACH -0.0519
-0.6387 UNBEKANNT </s> 2.5164
-1.0792 UND </s> 1.8972
-2.4169 UND AN -0.0584
-2.4169 UND BEWEGE 0.0365
-2.4169 UND BILDET 0.0365
-2.4169 UND DANN -0.0684
-2.4169 UND DER -0.0758
-2.4169 UND DESIGNS 0.0365
-2.4169 UND DEUTLICH 0.0365
-1.8800 UND DIE -0.0724
-1.8800 UND EIN -0.0717
-2.4169 UND EINEM -0.0642
-1.4674 UND ES -0.1289
-2.4169 UND FAMILIENRECHT 0.0365
-1.0000 UND FüGE 0.0029
-2.4169 UND ICH -0.0684
-1.6889 UND LEGE 0.5470
-2.4169 UND PACK 0.0365
-2.4169 UND PACKEN -0.0238
-1.4674 UND PFLICHTEN 0.0463
-2.4169 UND RECHTSGESCHäFTSäHNLICHE 0.0365
-2.4169 UND SCHIEBE 0.0365
-2.4169 UND SCHNELLE 0.0365
-2.4169 UND SETZ 0.0365
-1.6889 UND SETZE -0.1757
-2.4169 UND SPIEGEL 0.4204
-1.4674 UND SPIEGELE -0.1992
-1.8800 UND STELLE 0.0365
-2.4169 UND VERIFIZIEREN 0.0365
-2.4169 UND VON -0.0733
-2.4169 UND WAS -0.0422
-1.8800 UND ZWAR 0.0365
-1.8800 UND äH -0.0474
-1.8800 UND äHM 0.2732
-0.6387 UNMITTELBAR HINTER -0.0238
-0.6387 UNMITTELBARE UMFELD 0.0365
-1.0869 UNTEN </s> 2.2952
-1.8148 UNTEN BEFINDET 0.2341
-0.8654 UNTEN IN 0.0733
-1.2779 UNTEN LINKS 0.0921
-1.2779 UNTEN RECHTS -0.0102
-1.8148 UNTEN REICHT 0.0365
-1.8148 UNTEN REIN -0.0422
-1.8148 UNTEN ZEIGEN 0.0365
-0.6387 UNTERDRüCKT </s> 2.5164
-0.6387 UNTERE ECKE 0.3211
-0.9398 UNTEREN SEITE 0.1042
-0.9398 UNTEREN ZWEI -0.0697
-0.6387 UNTERHALB AN -0.0478
-0.6387 UNTERKANTE DES -0.0723
-0.6387 UNTERSCHEIDET ZWEI -0.0697
-0.6387 UNTERSCHIEDLICH AUSGESTALTET 0.0365
-0.9398 UNTERSCHIEDLICHE BAUARTEN 0.0365
-0.9398 UNTERSCHIEDLICHE GRößEN 0.0365
-0.6387 UNTERSTE TEIL -0.0652
-0.6387 UNTERTEIL AUF 0.3491
-0.4028 UNVERSCHLüSSELTE TEXT 0.0524
-0.6387 URSPRUNG DES -0.0723
-0.6387 VERANTWORTLICHKEIT LIEGT 0.0561
-0.6387 VERDACHTSANZEIGE ERSTATTEN 0.0365
-0.6387 VEREINBARUNG </s> 2.5164
-0.6387 VERFAHREN MöCHTE 0.0365
-0.6387 VERFASSUNG </s> 2.5164
-0.9398 VERFASSUNGSBESCHWERDE ERHEBEN 0.0365
-0.9398 VERFASSUNGSBESCHWERDE IST -0.0748
-0.6387 VERFASSUNGSORGANE BETREFFEN 0.0365
-0.1664 VERFüGBAR </s> 1.4399
-0.6387 VERFüGUNG </s> 2.5164
-0.6387 VERGEBEN </s> 2.5164
-0.6387 VERGEGENWäRTIGEN </s> 2.5164
-0.6387 VERIFIZIEREN MUSS -0.0667
-0.5789 VERKäUFER BEREITS -0.0332
-1.1159 VERKäUFER DIE -0.0759
-0.6387 VERKüNDET </s> 2.5164
-0.6387 VERLANGT VOM -0.0564
-0.6387 VERLETZT </s> 2.5164
-0.6387 VERLETZUNG EIGENER 0.0365
-0.4028 VERLIEREN </s> 2.4271
-0.6387 VERLIERST </s> 2.5164
-0.6387 VERMITTLUNGSSTELLE IST 0.0113
-0.6387 VERMöGENSVERTEILUNG WAR -0.0599
-0.6387 VERNEINEN WENN -0.0623
-0.6387 VERSCHIEDENE FIRMEN 0.0365
-0.6387 VERSCHLüSSELN </s> 2.5164
-0.1664 VERSCHLüSSELT </s> 1.4399
-0.9398 VERSCHLüSSELUNG GENERIERT 0.0365
-0.9398 VERSCHLüSSELUNG IST -0.0698
-0.6387 VERSCHOBEN </s> 2.5164
-0.6387 VERSCHULDEN ALKOHOLISIERT 0.0365
-0.6387 VERSCHULDENSFäHIGEN PERSON -0.0238
-0.6387 VERSTEHEN KöNNEN -0.0411
-0.6387 VERSUCHTE DIE -0.0734
-0.0414 VERTIKAL </s> 1.5933
-0.6387 VERTRAG IST -0.0201
-0.4028 VERTRAGSPARTNER DES -0.1503
-0.6387 VERTRAGSTYPEN KöNNEN -0.0667
-0.6387 VERTRAGSVERHäLTNIS </s> 2.5164
-0.6387 VERWALTUNGSAKT AUF -0.0706
-0.9398 VERWENDET </s> 2.5164
-0.9398 VERWENDET WERDEN 0.2564
-0.6387 VERWENDUNG DER -0.0758
-0.6387 VERWIRKUNG VON -0.0733
-0.6387 VERWIRKUNGSVERFAHREN BEKANNT -0.0238
-0.6387 VERäNDERT </s> 2.5164
-0.6387 VERöFFENTLICHEN </s> 2.5164
-0.6387 VERöFFENTLICHT </s> 2.5164
-0.6387 VERöLTE BREMSBELäGE 0.0365
-0.6387 VIEL ZEIT -0.0564
-0.6387 VIELEN NATURWISSENSCHAFTLERN 0.0365
-0.6387 VIELES TEURER 0.0365
-0.6387 VIELSEITIGEN NACHWACHSENDEN 0.0365
-1.1159 VIER DREI -0.0599
-1.1159 VIER KäSTCHEN -0.0564
-1.1159 VIER VERWIRKUNGSVERFAHREN 0.0365
-0.6387 VIERECK </s> 2.5164
-0.9398 VOLLSTäNDIG IN -0.0748
-0.9398 VOLLSTäNDIG ZUFäLLIGE 0.0365
-1.3377 VOM FUß 0.0189
-1.3377 VOM GELD 0.0365
-1.3377 VOM GESETZ 0.0365
-1.3377 VOM RELATIVITäTSGRUNDSATZ 0.0365
-1.3377 VOM VERKäUFER -0.0422
-2.0859 VON BITS 0.0365
-1.1364 VON BUCHSTABEN -0.9250
-2.0859 VON BüRGERRECHTEN 0.0365
-2.0859 VON DEN -0.0733
-1.1364 VON DER -0.0372
-1.5490 VON DIESEM -0.0350
-2.0859 VON DIESEN -0.0238
-1.5490 VON EINEM -0.0511
-1.5490 VON EINER -0.0301
-1.5490 VON KONTRAHIERUNGSZWANG 0.0524
-2.0859 VON MIR -0.0238
-2.0859 VON NACHRICHTEN -0.0238
-1.5490 VON RECHTS -0.0482
-2.0859 VON SEINEM 0.0365
-2.0859 VON UNTEN -0.0397
-2.0859 VON VIELEN 0.0365
-2.0859 VON WIRELESS 0.0365
-2.0859 VON ZAHLREICHEN 0.0365
-2.0859 VON ZEICHEN 0.0365
-0.9398 VOR EINER -0.0667
-0.9398 VOR WENN -0.0623
-0.6387 VORDERBEIN DES -0.0723
-0.6387 VORGESEHENE NEUE -0.0238
-0.6387 VORTRAG DES -0.0723
-0.6387 VöLKERRECHT WIRD -0.0718
-0.6387 W- </s> 2.5164
-0.9398 WANN ERLISCHT 0.0365
-0.9398 WANN IST -0.0698
-1.4169 WAR BEVOR -0.0238
-1.4169 WAR EIN -0.0743
-1.4169 WAR EINIGERMAßEN 0.0365
-1.4169 WAR GEGENüBER -0.0599
-1.4169 WAR SIE -0.0248
-1.4169 WAR VOR -0.0238
-0.6387 WAREN PREISWERTE 0.0365
-0.6387 WARUM ER -0.0623
-1.1159 WAS AUSSIEHT 0.8262
-1.1159 WAS IST -0.0748
-1.1159 WAS SICH -0.0684
-0.6387 WEG EIN -0.0743
-0.6387 WEIL JEDER -0.0238
-0.6387 WEITEREN SOLDATEN 0.0365
-0.6387 WEITERGEHEN </s> 2.5164
-0.9398 WELCHE AUSNAHMEN 0.0365
-0.9398 WELCHE RICHTUNG 0.0365
-0.6387 WELCHES </s> 2.5164
-0.5344 WENN DIE -0.1299
-1.4838 WENN DU -0.0599
-1.4838 WENN ER -0.0623
-1.4838 WENN ICH -0.0684
-1.4838 WENN MAN -0.0642
-0.6387 WER WAR -0.0599
-0.6387 WERDE GEWINNEN 0.0365
-0.2711 WERDEN </s> 1.4172
-2.0859 WERDEN AUS -0.0370
-2.0859 WERDEN BEI -0.0422
-2.0859 WERDEN DEM -0.0540
-2.0859 WERDEN DIE -0.0759
-2.0859 WERDEN GENAU -0.0667
-2.0859 WERDEN GESENKT 0.0365
-2.0859 WERDEN GESTELLT 0.0365
-2.0859 WERDEN IMMER -0.0422
-2.0859 WERDEN KEINEN 0.0365
-2.0859 WERDEN KONKURRENTEN 0.0365
-2.0859 WERDEN MUSS -0.0667
-2.0859 WERDEN SUKZESSIVE 0.0365
-2.0859 WERDEN ZAHLREICHE -0.0511
-0.6387 WERKSTATT BESUCHEN 0.0365
-0.4028 WERTE GLEICH 0.0524
-0.6387 WERTSICHERUNGSKLAUSEL </s> 2.5164
-0.4028 WETTBEWERBSVORTEIL ERLANGT 0.0524
-0.9398 WICHTIG </s> 2.5164
-0.9398 WICHTIG DASS -0.0721
-0.6387 WICHTIGER INTERNATIONALER 0.0365
-0.6387 WIDERLEGT WERDEN 0.2564
-1.7179 WIE DUMM 0.0365
-0.1249 WIE EIN 0.0223
-1.7179 WIE ER -0.0623
-1.7179 WIE GESAGT 0.0365
-0.6387 WIEDER EIN -0.0679
-0.9398 WILLENSERKLäRUNG WAR -0.0599
-0.9398 WILLENSERKLäRUNG WURDE -0.0496
-0.6387 WINKEL </s> 2.5164
-1.2408 WIR DAS 0.0842
-1.2408 WIR DIE -0.0680
-1.2408 WIR IHN 0.0365
-1.2408 WIR WERDEN -0.0733
-0.9903 WIRD </s> 1.4399
-1.9398 WIRD ABGEDECKT 0.0365
-1.9398 WIRD AUF -0.0706
-1.4028 WIRD BIT -0.0705
-1.9398 WIRD DANN -0.0684
-1.9398 WIRD DENNOCH 0.0365
-1.9398 WIRD DIE -0.0759
-1.9398 WIRD DURCH -0.0564
-1.9398 WIRD GRUNDSäTZLICH 0.0365
-1.4028 WIRD MIT -0.0219
-1.9398 WIRD VERSCHOBEN 0.0365
-1.4028 WIRD VON -0.0607
-1.9398 WIRD WEITERGEHEN 0.0365
-1.9398 WIRD ZUM -0.0238
-1.9398 WIRD üBLICHERWEISE 0.0365
-0.6387 WIRELESS LAN 0.0365
-0.6387 WIRKSAM </s> 2.5164
-0.9398 WIRKUNG DER -0.0758
-0.9398 WIRKUNG LäSST -0.0238
-0.6387 WIRTSCHAFTSMODELL IN -0.0587
-0.6387 WISSENSCHAFT DIE -0.0759
-0.6387 WOHLSTAND FüR -0.0656
-0.6097 WORDEN </s> 2.2952
-1.3377 WORDEN IST 0.0113
-0.6387 WORTEN UMSCHRIEBEN 0.0365
-1.7527 WURDE AM -0.0422
-1.2158 WURDE DER -0.0748
-1.7527 WURDE DIE -0.0715
-1.2158 WURDE DURCH 0.0223
-1.7527 WURDE DYNAMISCH 0.0365
-1.7527 WURDE FESTGELEGT 0.0365
-1.7527 WURDE IM -0.0709
-1.7527 WURDE IN -0.0748
-1.7527 WURDE INNERHALB -0.0422
-1.2158 WURDE MIT -0.0649
-0.6387 WURDEN DIE -0.0759
-0.6387 WäRE DIE -0.0759
-0.6387 WüRDE SEHR -0.0623
-0.6387 WüRFEL </s> 2.5164
-0.9398 Z </s> 2.5164
-0.9398 Z AN -0.0478
-0.6387 ZAHLEN ZUM -0.0238
-1.2408 ZAHLREICHE ANDERE 0.0365
-1.2408 ZAHLREICHE ANFRAGEN 0.0365
-1.2408 ZAHLREICHE GRAFISCHE 0.0365
-1.2408 ZAHLREICHE RUNDFUNKPROGRAMME 0.0365
-0.6387 ZAHLREICHEN PRIVATPERSONEN 0.0365
-0.6387 ZEICHEN </s> 2.5164
-0.6387 ZEIGEN </s> 2.5164
-1.3377 ZEIT </s> 2.5164
-1.3377 ZEIT GAB 0.4204
-1.3377 ZEIT NACH -0.0723
-1.3377 ZEIT NACHLASSEN 0.0365
-1.3377 ZEIT VERLIEREN 0.1418
-0.6387 ZEITEINHEIT </s> 2.5164
-0.6387 ZEITPUNKT </s> 2.5164
-0.6387 ZEITRAUM FüR 0.0351
-0.6387 ZERLEGEN </s> 2.5164
-0.6387 ZIELE SIND -0.0684
-0.6387 ZIEMLICH LANGE 0.0365
-1.5418 ZU BEACHTEN 0.0365
-1.5418 ZU EINEM -0.0642
-1.5418 ZU EINER -0.0667
-1.5418 ZU GESETZLICHEN 0.0365
-1.5418 ZU SEHEN 0.0365
-1.5418 ZU VERNEINEN 0.0365
-1.5418 ZU VERöFFENTLICHEN 0.0365
-1.5418 ZU ZERLEGEN 0.0365
-0.6387 ZUFäLLIGE ABFOLGE 0.0365
-0.6387 ZUGEORDNET </s> 2.5164
-0.6387 ZUKUNFTSPROGNOSE </s> 2.5164
-0.9398 ZUM GEGENSTAND -0.0238
-0.9398 ZUM GEGENWäRTIGEN 0.0365
-0.9398 ZUR HEUTIGEN 0.0365
-0.9398 ZUR VERFüGUNG 0.0365
-0.6387 ZUSäTZLICHE SOFTWARE -0.0422
-0.9398 ZWAR </s> 2.5164
-0.9398 ZWAR LINKS -0.0648
-1.7849 ZWEI </s> 2.5164
-1.7849 ZWEI BAUSTEINE 0.0365
-1.7849 ZWEI DREI -0.0599
-1.2479 ZWEI EINS 0.1038
-1.7849 ZWEI GNUBBEL 0.0365
-1.7849 ZWEI GNUBBELN 0.0365
-1.7849 ZWEI IP -0.0020
-1.7849 ZWEI KäSTCHEN -0.0564
-1.7849 ZWEI ODER -0.0623
-1.7849 ZWEI SIEBEN -0.0511
-1.7849 ZWEI UNTERSCHIEDLICHE -0.0238
-1.2479 ZWEI ZWEI -0.0440
-0.6387 ZWEIERRIEGEL </s> 2.5164
-0.6387 ZWEIMAL UM -0.0684
-0.9398 ZWEITE </s> 2.5164
-0.9398 ZWEITE REIHE -0.0238
-0.6387 ZWEITEN SPALTE -0.0238
-0.1664 ZWISCHEN DEN -0.0660
-0.6387 ÜBERTRAGUNGSRATEN UND -0.0711
-1.4838 äH </s> 2.5164
-1.4838 äH AN -0.0274
-1.4838 äH DREIMAL 0.0365
-1.4838 äH GRENZT -0.0238
-1.4838 äH JA -0.0422
-1.4838 äH LINKS -0.0648
-1.4838 äH MUSS -0.0667
-0.1963 äHM </s> 2.3879
-1.6801 äHM AUS -0.0370
-1.6801 äHM GESPIEGELTE 0.0365
-1.6801 äHM LINKS -0.0734
-1.6801 äHM NEHME 1.1273
-1.1159 üBER DEM -0.0727
-0.5789 üBER DEN -0.1537
-0.6387 üBERLASSEN </s> 2.5164
-0.6387 üBERNOMMEN </s> 2.5164
-0.6387 üBERPRüFT WORDEN 0.0456
-0.6387 üBLICHERWEISE MIT -0.0709
-0.6387 üBTE AUF -0.0706

\3-grams:
-0.7901 14 JUNI 2002 
-0.7901 18 MILLIONEN ADRESSEN 
-0.7901 1998 ENTWICKELT </s> 
-0.7901 1998 LEBTEN DORT 
-0.7901 2002 VERöFFENTLICHT </s> 
-2.7888 </s> <s> AES 
-2.1467 </s> <s> ALSO 
-2.1467 </s> <s> AN 
-3.3822 </s> <s> ANSCHLIEßT 
-2.7888 </s> <s> AUF 
-2.7888 </s> <s> AUS 
-3.3822 </s> <s> BEI 
-3.3822 </s> <s> BEIM 
-3.3822 </s> <s> BEISPIELSWEISE 
-3.3822 </s> <s> BEVOR 
-3.3822 </s> <s> BIS 
-3.3822 </s> <s> BISHER 
-3.3822 </s> <s> BRRRR 
-3.3822 </s> <s> DADURCH 
-3.3822 </s> <s> DAMALS 
-3.3822 </s> <s> DANACH 
-2.1467 </s> <s> DANN 
-3.3822 </s> <s> DARAN 
-1.3134 </s> <s> DAS 
-2.2941 </s> <s> DASS 
-1.1298 </s> <s> DER 
-3.3822 </s> <s> DEREN 
-2.7888 </s> <s> DEUTSCHE 
-1.0240 </s> <s> DIE 
-3.3822 </s> <s> DIES 
-2.1467 </s> <s> DIESE 
-3.3822 </s> <s> DIESEN 
-3.3822 </s> <s> DIESER 
-3.3822 </s> <s> DIESES 
-3.3822 </s> <s> DORT 
-1.6379 </s> <s> DREHE 
-3.3822 </s> <s> DREHEN 
-3.3822 </s> <s> DRITTE 
-3.3822 </s> <s> DURCH 
-2.2941 </s> <s> EIN 
-2.2941 </s> <s> EINE 
-3.3822 </s> <s> EINER 
-3.3822 </s> <s> ENDEN 
-2.2941 </s> <s> ER 
-1.5508 </s> <s> ES 
-3.3822 </s> <s> ETWA 
-3.3822 </s> <s> FAST 
-2.1467 </s> <s> FERNER 
-3.3822 </s> <s> FORDERUNGSRECHTE 
-3.3822 </s> <s> FüGE 
-2.7888 </s> <s> FüR 
-3.3822 </s> <s> GANZ 
-2.1467 </s> <s> GEGENüBER 
-3.3822 </s> <s> GENAU 
-3.3822 </s> <s> GESETZLICHE 
-3.3822 </s> <s> GRUNDRECHTSVERWIRKUNG 
-3.3822 </s> <s> GRößERE 
-3.3822 </s> <s> HALT 
-3.3822 </s> <s> HAST 
-2.7888 </s> <s> HAT 
-3.3822 </s> <s> HIERBEI 
-3.3822 </s> <s> HIERDURCH 
-3.3822 </s> <s> HIERFüR 
-3.3822 </s> <s> HIERZU 
-3.3822 </s> <s> HORIZONTAL 
-3.3822 </s> <s> HöCHSTSTRAFE 
-2.1710 </s> <s> ICH 
-1.9909 </s> <s> IM 
-1.8724 </s> <s> IN 
-3.3822 </s> <s> INNERHALB 
-3.3822 </s> <s> IP 
-3.3822 </s> <s> IST 
-2.7888 </s> <s> JE 
-3.3822 </s> <s> JEDER 
-3.3822 </s> <s> JEDERMANN 
-2.7888 </s> <s> JETZT 
-3.3822 </s> <s> KöNNEN 
-3.3822 </s> <s> L 
-3.3822 </s> <s> LEGE 
-2.2941 </s> <s> LINKS 
-1.8724 </s> <s> MAN 
-2.7888 </s> <s> MATHEMATIK 
-3.3822 </s> <s> MATHEMATISCHE 
-3.3822 </s> <s> MEHRERE 
-3.3822 </s> <s> MHM 
-2.1467 </s> <s> MIT 
-3.3822 </s> <s> MITTLERWEILE 
-3.3822 </s> <s> MUSS 
-3.3822 </s> <s> NATURWISSENSCHAFTLICHE 
-3.3822 </s> <s> NEE 
-1.5508 </s> <s> NEHME 
-3.3822 </s> <s> NEHMEN 
-2.7888 </s> <s> NEUN 
-3.3822 </s> <s> NEUNZIG 
-3.3822 </s> <s> NICHT 
-1.6379 </s> <s> NIMM 
-3.3822 </s> <s> NORWEGEN 
-2.2941 </s> <s> NULL 
-3.3822 </s> <s> NUR 
-3.3822 </s> <s> OBEN 
-3.3822 </s> <s> OBEREN 
-3.3822 </s> <s> OBJEKT 
-3.3822 </s> <s> OBWOHL 
-3.3822 </s> <s> ODER 
-3.3822 </s> <s> OHNE 
-2.7888 </s> <s> ORGANSTREITVERFAHREN 
-3.3822 </s> <s> PARABOLANTENNEN 
-3.3822 </s> <s> PEREMPTORISCHE 
-3.3822 </s> <s> RECHTEN 
-2.2941 </s> <s> RECHTS 
-3.3822 </s> <s> RECHTSEITIG 
-2.7888 </s> <s> SIE 
-3.3822 </s> <s> SIEBEN 
-1.9909 </s> <s> SO 
-2.7888 </s> <s> SONDERN 
-2.7888 </s> <s> SPIEGEL 
-2.2941 </s> <s> SPIEGELE 
-3.3822 </s> <s> SPIEGELN 
-3.3822 </s> <s> SPIEGLE 
-3.3822 </s> <s> UM 
-2.7888 </s> <s> UMGEDREHTES 
-1.0124 </s> <s> UND 
-3.3822 </s> <s> UNMITTELBAR 
-3.3822 </s> <s> UNTEN 
-3.3822 </s> <s> UNTERHALB 
-3.3822 </s> <s> VERSCHIEDENE 
-3.3822 </s> <s> VIER 
-1.9909 </s> <s> VON 
-3.3822 </s> <s> W- 
-2.7888 </s> <s> WANN 
-3.3822 </s> <s> WEIL 
-3.3822 </s> <s> WELCHE 
-2.2941 </s> <s> WENN 
-3.3822 </s> <s> WER 
-3.3822 </s> <s> WIR 
-3.3822 </s> <s> WIRD 
-2.7888 </s> <s> WURDE 
-2.7888 </s> <s> ZAHLREICHE 
-3.3822 </s> <s> ZIELE 
-3.3822 </s> <s> ZU 
-2.1467 </s> <s> ZWEI 
-2.1467 </s> <s> äH 
-1.8724 </s> <s> äHM 
-2.7888 </s> <s> üBER 
-0.4977 <s> AES GILT 
-1.2672 <s> ALSO DASS 
-1.2672 <s> ALSO ES 
-1.2672 <s> ALSO NICHT 
-0.6738 <s> AN ALLEN 
-1.2672 <s> AN DEN 
-0.7901 <s> ANSCHLIEßT </s> 
-0.4977 <s> AUF DER 
-1.0911 <s> AUS DEM 
-1.0911 <s> AUS DIESEM 
-0.7901 <s> BEI HOLZ 
-0.7901 <s> BEIM VERTRAG 
-0.7901 <s> BEISPIELSWEISE DER 
-0.7901 <s> BEVOR DIE 
-0.7901 <s> BIS RAN 
-0.7901 <s> BISHER SIND 
-0.7901 <s> BRRRR </s> 
-0.7901 <s> DADURCH IST 
-0.7901 <s> DAMALS WAREN 
-0.7901 <s> DANACH LEGE 
-1.2672 <s> DANN AN 
-1.2672 <s> DANN GILT 
-1.2672 <s> DANN SETZE 
-0.7901 <s> DARAN MUSS 
-2.0688 <s> DAS AUS 
-2.0688 <s> DAS BUNDESVERFASSUNGSGERICHT 
-0.9807 <s> DAS IST 
-2.0688 <s> DAS KREDITINSTITUT 
-1.4754 <s> DAS L 
-2.0688 <s> DAS LEBEN 
-2.0688 <s> DAS LINKE 
-2.0688 <s> DAS RECHTSMITTEL 
-2.0688 <s> DAS S 
-2.0688 <s> DAS SIGNIEREN 
-2.0688 <s> DAS SYSTEM 
-2.0688 <s> DAS VöLKERRECHT 
-2.0688 <s> DAS WAR 
-2.0688 <s> DAS WäRE 
-2.0688 <s> DAS äHM 
-1.3921 <s> DASS </s> 
-1.3921 <s> DASS BEIM 
-1.3921 <s> DASS ES 
-1.3921 <s> DASS LINKS 
-2.2524 <s> DER ANTRAGSTELLER 
-2.2524 <s> DER AUSTAUSCH 
-2.2524 <s> DER DATENAUSTAUSCH 
-2.2524 <s> DER DURCHSCHNITTLICHE 
-2.2524 <s> DER GANZ 
-2.2524 <s> DER GRUNDRECHTSINHALT 
-2.2524 <s> DER HOHEITSAKT 
-2.2524 <s> DER KäUFER 
-2.2524 <s> DER MIETER 
-2.2524 <s> DER NACHWEIS 
-2.2524 <s> DER NICHT 
-2.2524 <s> DER NORMADRESSAT 
-2.2524 <s> DER ORGANSTREIT 
-2.2524 <s> DER PROGRAMMFEHLER 
-2.2524 <s> DER RHEINISCHE 
-2.2524 <s> DER ROUTER 
-2.2524 <s> DER RüSSEL 
-2.2524 <s> DER SCHADEN 
-2.2524 <s> DER SCHLüSSELSTROM 
-2.2524 <s> DER SCHMERZ 
-2.2524 <s> DER SICH 
-2.2524 <s> DER TECHNISCHE 
-2.2524 <s> DER TYPENZWANG 
-1.6590 <s> DER UNVERSCHLüSSELTE 
-2.2524 <s> DER URSPRUNG 
-1.6590 <s> DER VERTRAGSPARTNER 
-2.2524 <s> DER ZEITRAUM 
-0.7901 <s> DEREN KRYPTOGRAFISCHE 
-0.4977 <s> DEUTSCHE STRAFRICHTER 
-2.3583 <s> DIE ADRESSE 
-2.3583 <s> DIE BEHöRDE 
-2.3583 <s> DIE BEI 
-2.3583 <s> DIE BETRIEBSKOSTEN 
-2.3583 <s> DIE BEVöLKERUNG 
-2.3583 <s> DIE BUNDESREPUBLIK 
-2.3583 <s> DIE DELIKTISCHE 
-2.3583 <s> DIE DIE 
-2.3583 <s> DIE ERWERBERIN 
-1.7649 <s> DIE FORDERUNG 
-2.3583 <s> DIE GEGENSäTZE 
-2.3583 <s> DIE GETRIEBENABE 
-1.1227 <s> DIE HäUFIGKEIT 
-2.3583 <s> DIE HüLLE 
-2.3583 <s> DIE KONSTRUKTION 
-2.3583 <s> DIE KRYPTOGRAFISCHE 
-2.3583 <s> DIE MATHEMATIK 
-2.3583 <s> DIE MITGLIEDER 
-1.7649 <s> DIE MODERNE 
-2.3583 <s> DIE PARABOLANTENNE 
-2.3583 <s> DIE PERSöNLICHE 
-2.3583 <s> DIE PROZESSFäHIGKEIT 
-1.7649 <s> DIE RECHTE 
-2.3583 <s> DIE RECHTSNORM 
-2.3583 <s> DIE STROMVERSCHLüSSELUNG 
-2.3583 <s> DIE VERANTWORTLICHKEIT 
-2.3583 <s> DIE VERFASSUNGSBESCHWERDE 
-2.3583 <s> DIE VERMöGENSVERTEILUNG 
-1.7649 <s> DIE WILLENSERKLäRUNG 
-1.7649 <s> DIE WIRKUNG 
-0.7901 <s> DIES GILT 
-1.2672 <s> DIESE FUNKTECHNIK 
-1.2672 <s> DIESE SICHERHEITSLüCKEN 
-1.2672 <s> DIESE SOFTWARE 
-0.7901 <s> DIESEN ANBIETER 
-0.7901 <s> DIESER STANDARD 
-0.7901 <s> DIESES LAND 
-0.7901 <s> DORT WERDEN 
-0.0512 <s> DREHE ES 
-1.7443 <s> DREHE ES_HUNDERTACHTZIG_GRAD 
-0.7901 <s> DREHEN ES 
-0.7901 <s> DRITTE KöNNEN 
-0.7901 <s> DURCH DEN 
-1.3921 <s> EIN EINBRECHER 
-1.3921 <s> EIN FREIES 
-1.3921 <s> EIN PORT 
-1.3921 <s> EIN STRENG 
-1.3921 <s> EINE EINBEZIEHUNG 
-1.3921 <s> EINE GOLDKLAUSEL 
-1.3921 <s> EINE IP 
-1.3921 <s> EINE STATISCHE 
-0.7901 <s> EINER DER 
-0.7901 <s> ENDEN JEWEILS 
-0.1566 <s> ER HAT 
-1.3921 <s> ER WIRD 
-0.5959 <s> ES GEHT 
-1.2380 <s> ES GIBT 
-1.2380 <s> ES HANDELT 
-1.2380 <s> ES IST 
-1.8314 <s> ES KOMMT 
-1.8314 <s> ES MIT 
-0.7901 <s> ETWA 18 
-0.7901 <s> FAST IN 
-1.2672 <s> FERNER BENöTIGT 
-1.2672 <s> FERNER SOLL 
-1.2672 <s> FERNER WERDEN 
-0.7901 <s> FORDERUNGSRECHTE WERDEN 
-0.7901 <s> FüGE ES 
-1.0911 <s> FüR DIE 
-1.0911 <s> FüR WIE 
-0.7901 <s> GANZ OBEN 
-1.2672 <s> GEGENüBER DEM 
-0.6738 <s> GEGENüBER SEINEN 
-0.7901 <s> GENAU IN 
-0.7901 <s> GESETZLICHE FORMVORSCHRIFTEN 
-0.7901 <s> GRUNDRECHTSVERWIRKUNG IST 
-0.7901 <s> GRößERE BLöCKE 
-0.7901 <s> HALT GENAU 
-0.7901 <s> HAST DU 
-0.4977 <s> HAT DER 
-0.7901 <s> HIERBEI WERDEN 
-0.7901 <s> HIERDURCH WERDEN 
-0.7901 <s> HIERFüR GIBT 
-0.7901 <s> HIERZU BEDARF 
-0.7901 <s> HORIZONTAL </s> 
-0.7901 <s> HöCHSTSTRAFE IST 
-1.6351 <s> ICH HABE 
-1.6351 <s> ICH NEHM 
-0.5470 <s> ICH NEHME 
-1.6351 <s> ICH WERDE 
-1.4890 <s> IM ANGRENZENDEN 
-1.4890 <s> IM GEGENSATZ 
-1.4890 <s> IM JAHR 
-1.4890 <s> IM KONKRETEN 
-1.4890 <s> IM MAINBOARD 
-1.5682 <s> IN DEN 
-1.5682 <s> IN DER 
-0.3327 <s> IN DIE 
-1.5682 <s> IN FRANKREICH 
-0.7901 <s> INNERHALB DERER 
-0.7901 <s> IP ADRESSEN 
-0.7901 <s> IST JA 
-1.0911 <s> JE GRößER 
-1.0911 <s> JE LäNGER 
-0.7901 <s> JEDER BUCHSTABE 
-0.7901 <s> JEDERMANN KANN 
-0.4977 <s> JETZT SUCHEN 
-0.7901 <s> KöNNEN AUCH 
-0.7901 <s> L IN 
-0.7901 <s> LEGE ES 
-0.7987 <s> LINKS </s> 
-1.3921 <s> LINKS AUS 
-1.3921 <s> LINKS SO 
-1.5682 <s> MAN MUSS 
-1.5682 <s> MAN SOLL 
-0.9748 <s> MAN SPRICHT 
-1.5682 <s> MAN UNTERSCHEIDET 
-1.5682 <s> MAN VERSUCHTE 
-1.0911 <s> MATHEMATIK IST 
-1.0911 <s> MATHEMATIK WIRD 
-0.7901 <s> MATHEMATISCHE FRAGESTELLUNGEN 
-0.7901 <s> MEHRERE TEILNEHMER 
-0.7901 <s> MHM JETZT 
-1.2672 <s> MIT DEM 
-1.2672 <s> MIT DIESER 
-1.2672 <s> MIT VIER 
-0.7901 <s> MITTLERWEILE IST 
-0.7901 <s> MUSS EINE 
-0.7901 <s> NATURWISSENSCHAFTLICHE ERKENNTNISSE 
-0.7901 <s> NEE DAS 
-1.8314 <s> NEHME </s> 
-0.0414 <s> NEHME DAS 
-0.7901 <s> NEHMEN SIE 
-1.0911 <s> NEUN NEUN 
-1.0911 <s> NEUN NULL 
-0.7901 <s> NEUNZIG GRAD 
-0.7901 <s> NICHT NUR 
-1.7443 <s> NIMM </s> 
-0.5331 <s> NIMM DAS 
-1.7443 <s> NIMM DEN 
-0.7901 <s> NORWEGEN IST 
-1.3921 <s> NULL </s> 
-0.7987 <s> NULL DREI 
-1.3921 <s> NULL SECHS 
-0.7901 <s> NUR DAS 
-0.7901 <s> OBEN </s> 
-0.7901 <s> OBEREN DREI 
-0.7901 <s> OBJEKT AUF 
-0.7901 <s> OBWOHL PHYSIKALISCHE 
-0.7901 <s> ODER NACH 
-0.7901 <s> OHNE VERSCHULDEN 
-0.4977 <s> ORGANSTREITVERFAHREN KöNNEN 
-0.7901 <s> PARABOLANTENNEN KöNNEN 
-0.7901 <s> PEREMPTORISCHE EINREDE 
-0.7901 <s> RECHTEN IM 
-1.3921 <s> RECHTS </s> 
-1.3921 <s> RECHTS OBEN 
-1.3921 <s> RECHTS UNTEN 
-1.3921 <s> RECHTS VON 
-0.7901 <s> RECHTSEITIG </s> 
-1.0911 <s> SIE ERINNERT 
-1.0911 <s> SIE IST 
-0.7901 <s> SIEBEN NEUN 
-0.0976 <s> SO DASS 
-1.0911 <s> SONDERN AUCH 
-1.0911 <s> SONDERN EINFACH 
-0.4977 <s> SPIEGEL ES 
-0.3040 <s> SPIEGELE ES 
-0.7901 <s> SPIEGELN DIE 
-0.7901 <s> SPIEGLE ES 
-0.7901 <s> UM NEUNZIG_GRAD 
-1.0911 <s> UMGEDREHTES </s> 
-1.0911 <s> UMGEDREHTES Z 
-1.2817 <s> UND </s> 
-2.3698 <s> UND BEWEGE 
-2.3698 <s> UND BILDET 
-2.3698 <s> UND DANN 
-2.3698 <s> UND DIE 
-1.1343 <s> UND ES 
-0.8600 <s> UND FüGE 
-2.3698 <s> UND ICH 
-1.2817 <s> UND LEGE 
-2.3698 <s> UND PACK 
-2.3698 <s> UND PACKEN 
-2.3698 <s> UND SCHIEBE 
-2.3698 <s> UND SETZ 
-1.2817 <s> UND SETZE 
-1.7764 <s> UND STELLE 
-2.3698 <s> UND VON 
-1.7764 <s> UND ZWAR 
-2.3698 <s> UND äH 
-1.7764 <s> UND äHM 
-0.7901 <s> UNMITTELBAR HINTER 
-0.7901 <s> UNTEN </s> 
-0.7901 <s> UNTERHALB AN 
-0.7901 <s> VERSCHIEDENE FIRMEN 
-0.7901 <s> VIER DREI 
-0.7901 <s> VOM GESETZ 
-1.4890 <s> VON DER 
-1.4890 <s> VON DIESEM 
-1.4890 <s> VON EINER 
-1.4890 <s> VON RECHTS 
-1.4890 <s> VON SEINEM 
-0.7901 <s> W- </s> 
-1.0911 <s> WANN ERLISCHT 
-1.0911 <s> WANN IST 
-0.7901 <s> WEIL JEDER 
-0.7901 <s> WELCHE AUSNAHMEN 
-0.1566 <s> WENN DIE 
-1.3921 <s> WENN ICH 
-0.7901 <s> WER WAR 
-0.7901 <s> WIR WERDEN 
-0.7901 <s> WIRD </s> 
-1.0911 <s> WURDE DER 
-1.0911 <s> WURDE DIE 
-1.0911 <s> ZAHLREICHE ANFRAGEN 
-1.0911 <s> ZAHLREICHE GRAFISCHE 
-0.7901 <s> ZIELE SIND 
-0.7901 <s> ZU EINEM 
-1.2672 <s> ZWEI KäSTCHEN 
-0.6738 <s> ZWEI ZWEI 
-1.2672 <s> äH </s> 
