Language model created by QuickLM on Thu Jun 19 16:27:10 EDT 2014
Copyright (c) 1996-2010 Carnegie Mellon University and Alexander I. Rudnicky

The model is in standard ARPA format, designed by Doug Paul while he was at MITRE.

The code that was used to produce this language model is available in Open Source.
Please visit http://www.speech.cs.cmu.edu/tools/ for more information

The (fixed) discount mass is 0.5. The backoffs are computed using the ratio method.
This model based on a corpus of 19 sentences and 24 words

\data\
ngram 1=24
ngram 2=44
ngram 3=41

\1-grams:
-0.9861 </s> -0.3010
-0.9861 <s> -0.1976
-1.7877 ACHIEVEMENT -0.2511
-2.2648 ANYTHING -0.2537
-2.2648 ARE -0.2987
-1.7877 BIOMASS -0.2537
-1.7877 EARTH -0.2537
-1.4867 GREATEST -0.2793
-2.2648 HELLO -0.2987
-1.9638 HOW -0.2963
-1.7877 INFLUENCE -0.2537
-1.6628 IS -0.2793
-2.2648 OF -0.2987
-1.9638 OLD -0.2430
-2.2648 PREVALENT -0.2537
-2.2648 RESTART -0.2963
-1.9638 SCRIPT -0.2537
-1.5658 SPECIES -0.2457
-2.2648 START -0.2963
-1.4867 THE -0.2743
-2.2648 THIS -0.2891
-1.6628 WHAT -0.2793
-1.9638 WITH -0.2866
-2.2648 WORLD -0.2537

\2-grams:
-1.5798 <s> ACHIEVEMENT -0.1249
-1.5798 <s> ANYTHING 0.0000
-1.5798 <s> BIOMASS 0.0000
-1.5798 <s> EARTH 0.0000
-1.2788 <s> GREATEST -0.1249
-1.5798 <s> HELLO 0.0000
-1.2788 <s> HOW 0.0000
-1.5798 <s> INFLUENCE 0.0000
-1.5798 <s> RESTART 0.0000
-1.5798 <s> SPECIES -0.2041
-1.5798 <s> START 0.0000
-1.2788 <s> THE -0.2218
-0.9777 <s> WHAT 0.0000
-0.4771 ACHIEVEMENT </s> -0.3010
-0.7782 ACHIEVEMENT OF 0.0000
-0.3010 ANYTHING </s> -0.3010
-0.3010 ARE PREVALENT 0.0000
-0.3010 BIOMASS </s> -0.3010
-0.3010 EARTH </s> -0.3010
-0.7782 GREATEST ACHIEVEMENT 0.0000
-0.7782 GREATEST BIOMASS 0.0000
-0.7782 GREATEST INFLUENCE 0.0000
-0.3010 HELLO WORLD 0.0000
-0.3010 HOW OLD 0.0000
-0.3010 INFLUENCE </s> -0.3010
-0.6021 IS EARTH 0.0000
-0.6021 IS THE -0.1249
-0.3010 OF THIS 0.0000
-0.6021 OLD </s> -0.3010
-0.6021 OLD IS -0.1761
-0.3010 PREVALENT </s> -0.3010
-0.3010 RESTART SCRIPT 0.0000
-0.3010 SCRIPT </s> -0.3010
-0.6990 SPECIES </s> -0.3010
-1.0000 SPECIES ARE 0.0000
-0.6990 SPECIES WITH 0.0000
-0.3010 START SCRIPT 0.0000
-0.4771 THE GREATEST 0.0000
-0.7782 THE SPECIES -0.2041
-0.3010 THIS SPECIES -0.2041
-0.4260 WHAT IS 0.0000
-0.9031 WHAT SPECIES -0.2553
-0.3010 WITH THE -0.1249
-0.3010 WORLD </s> -0.3010

\3-grams:
-0.3010 <s> ACHIEVEMENT </s>
-0.3010 <s> ANYTHING </s>
-0.3010 <s> BIOMASS </s>
-0.3010 <s> EARTH </s>
-0.6021 <s> GREATEST BIOMASS
-0.6021 <s> GREATEST INFLUENCE
-0.3010 <s> HELLO WORLD
-0.3010 <s> HOW OLD
-0.3010 <s> INFLUENCE </s>
-0.3010 <s> RESTART SCRIPT
-0.3010 <s> SPECIES </s>
-0.3010 <s> START SCRIPT
-0.3010 <s> THE SPECIES
-0.4260 <s> WHAT IS
-0.9031 <s> WHAT SPECIES
-0.3010 ACHIEVEMENT OF THIS
-0.3010 ARE PREVALENT </s>
-0.6021 GREATEST ACHIEVEMENT </s>
-0.6021 GREATEST ACHIEVEMENT OF
-0.3010 GREATEST BIOMASS </s>
-0.3010 GREATEST INFLUENCE </s>
-0.3010 HELLO WORLD </s>
-0.6021 HOW OLD </s>
-0.6021 HOW OLD IS
-0.3010 IS EARTH </s>
-0.3010 IS THE GREATEST
-0.3010 OF THIS SPECIES
-0.3010 OLD IS EARTH
-0.3010 RESTART SCRIPT </s>
-0.3010 SPECIES ARE PREVALENT
-0.3010 SPECIES WITH THE
-0.3010 START SCRIPT </s>
-0.6021 THE GREATEST ACHIEVEMENT
-0.9031 THE GREATEST BIOMASS
-0.9031 THE GREATEST INFLUENCE
-0.3010 THE SPECIES WITH
-0.3010 THIS SPECIES </s>
-0.7782 WHAT IS EARTH
-0.4771 WHAT IS THE
-0.3010 WHAT SPECIES ARE
-0.3010 WITH THE GREATEST

\end\
